
Options: -U -M 2 

J48 unpruned tree
------------------

attribute_30 = G
|   attribute_29 = A
|   |   attribute_32 = T
|   |   |   attribute_31 = G
|   |   |   |   attribute_35 = G
|   |   |   |   |   attribute_28 = C
|   |   |   |   |   |   Instance_name = ATRINS-DONOR-521: EI (1.0)
|   |   |   |   |   |   Instance_name = ATRINS-DONOR-905: EI (0.0)
|   |   |   |   |   |   Instance_name = BABAPOE-DONOR-30: EI (0.0)
|   |   |   |   |   |   Instance_name = BABAPOE-DONOR-867: EI (1.0)
|   |   |   |   |   |   Instance_name = BABAPOE-DONOR-2817: EI (0.0)
|   |   |   |   |   |   Instance_name = CHPIGECA-DONOR-378: EI (0.0)
|   |   |   |   |   |   Instance_name = CHPIGECA-DONOR-903: EI (1.0)
|   |   |   |   |   |   Instance_name = CHPIGECA-DONOR-1313: EI (0.0)
|   |   |   |   |   |   Instance_name = GCRHBBA1-DONOR-1260: EI (0.0)
|   |   |   |   |   |   Instance_name = GCRHBBA1-DONOR-1590: EI (0.0)
|   |   |   |   |   |   Instance_name = GCRHBBA6-DONOR-461: EI (0.0)
|   |   |   |   |   |   Instance_name = GCRHBBA6-DONOR-795: EI (0.0)
|   |   |   |   |   |   Instance_name = GIBHBGGL-DONOR-2278: EI (0.0)
|   |   |   |   |   |   Instance_name = GIBHBGGL-DONOR-2624: EI (0.0)
|   |   |   |   |   |   Instance_name = GIBHBGGL-DONOR-7198: EI (0.0)
|   |   |   |   |   |   Instance_name = GIBHBGGL-DONOR-7544: EI (0.0)
|   |   |   |   |   |   Instance_name = HUMA1ATP-DONOR-1972: EI (0.0)
|   |   |   |   |   |   Instance_name = HUMA1ATP-DONOR-7932: EI (0.0)
|   |   |   |   |   |   Instance_name = HUMA1ATP-DONOR-9653: EI (0.0)
|   |   |   |   |   |   Instance_name = HUMA1ATP-DONOR-11057: EI (0.0)
|   |   |   |   |   |   Instance_name = HUMA1GLY2-DONOR-1693: EI (0.0)
|   |   |   |   |   |   Instance_name = HUMA1GLY2-DONOR-2251: EI (0.0)
|   |   |   |   |   |   Instance_name = HUMA1GLY2-DONOR-2540: EI (0.0)
|   |   |   |   |   |   Instance_name = HUMA1GLY2-DONOR-3352: EI (0.0)
|   |   |   |   |   |   Instance_name = HUMA1GLY2-DONOR-3606: EI (0.0)
|   |   |   |   |   |   Instance_name = HUMACCYBA-DONOR-289: EI (1.0)
|   |   |   |   |   |   Instance_name = HUMACCYBA-DONOR-1250: EI (1.0)
|   |   |   |   |   |   Instance_name = HUMACCYBA-DONOR-1624: EI (1.0)
|   |   |   |   |   |   Instance_name = HUMACCYBA-DONOR-2504: EI (0.0)
|   |   |   |   |   |   Instance_name = HUMACCYBA-DONOR-2781: EI (0.0)
|   |   |   |   |   |   Instance_name = HUMACCYBB-DONOR-290: EI (1.0)
|   |   |   |   |   |   Instance_name = HUMACCYBB-DONOR-1186: EI (1.0)
|   |   |   |   |   |   Instance_name = HUMACCYBB-DONOR-1558: EI (1.0)
|   |   |   |   |   |   Instance_name = HUMACCYBB-DONOR-2438: EI (0.0)
|   |   |   |   |   |   Instance_name = HUMACCYBB-DONOR-2715: EI (0.0)
|   |   |   |   |   |   Instance_name = HUMACTGA-DONOR-513: EI (0.0)
|   |   |   |   |   |   Instance_name = HUMACTGA-DONOR-1015: EI (1.0)
|   |   |   |   |   |   Instance_name = HUMACTGA-DONOR-1344: EI (1.0)
|   |   |   |   |   |   Instance_name = HUMACTGA-DONOR-2060: EI (0.0)
|   |   |   |   |   |   Instance_name = HUMACTGA-DONOR-2321: EI (0.0)
|   |   |   |   |   |   Instance_name = HUMADAG-DONOR-4034: EI (0.0)
|   |   |   |   |   |   Instance_name = HUMADAG-DONOR-19262: EI (1.0)
|   |   |   |   |   |   Instance_name = HUMADAG-DONOR-26437: EI (0.0)
|   |   |   |   |   |   Instance_name = HUMADAG-DONOR-29022: EI (0.0)
|   |   |   |   |   |   Instance_name = HUMADAG-DONOR-29909: EI (0.0)
|   |   |   |   |   |   Instance_name = HUMADAG-DONOR-31274: EI (1.0)
|   |   |   |   |   |   Instance_name = HUMADAG-DONOR-32467: EI (0.0)
|   |   |   |   |   |   Instance_name = HUMADAG-DONOR-32645: EI (0.0)
|   |   |   |   |   |   Instance_name = HUMADAG-DONOR-32886: EI (0.0)
|   |   |   |   |   |   Instance_name = HUMADAG-DONOR-34454: EI (0.0)
|   |   |   |   |   |   Instance_name = HUMADAG-DONOR-35173: EI (1.0)
|   |   |   |   |   |   Instance_name = HUMADAM2-DONOR-708: EI (0.0)
|   |   |   |   |   |   Instance_name = HUMAFP-DONOR-970: EI (0.0)
|   |   |   |   |   |   Instance_name = HUMAFP-DONOR-1834: EI (0.0)
|   |   |   |   |   |   Instance_name = HUMAFP-DONOR-2929: EI (1.0)
|   |   |   |   |   |   Instance_name = HUMAFP-DONOR-5428: EI (0.0)
|   |   |   |   |   |   Instance_name = HUMAFP-DONOR-7047: EI (0.0)
|   |   |   |   |   |   Instance_name = HUMAFP-DONOR-8063: EI (0.0)
|   |   |   |   |   |   Instance_name = HUMAFP-DONOR-9741: EI (0.0)
|   |   |   |   |   |   Instance_name = HUMAFP-DONOR-12231: EI (0.0)
|   |   |   |   |   |   Instance_name = HUMAFP-DONOR-14021: EI (0.0)
|   |   |   |   |   |   Instance_name = HUMAFP-DONOR-14687: EI (0.0)
|   |   |   |   |   |   Instance_name = HUMAFP-DONOR-15308: EI (0.0)
|   |   |   |   |   |   Instance_name = HUMAFP-DONOR-17179: EI (0.0)
|   |   |   |   |   |   Instance_name = HUMAFP-DONOR-18452: EI (0.0)
|   |   |   |   |   |   Instance_name = HUMAFP-DONOR-19845: EI (0.0)
|   |   |   |   |   |   Instance_name = HUMAK1-DONOR-954: EI (1.0)
|   |   |   |   |   |   Instance_name = HUMAK1-DONOR-3959: EI (0.0)
|   |   |   |   |   |   Instance_name = HUMAK1-DONOR-5540: EI (0.0)
|   |   |   |   |   |   Instance_name = HUMAK1-DONOR-5876: EI (0.0)
|   |   |   |   |   |   Instance_name = HUMAK1-DONOR-6743: EI (0.0)
|   |   |   |   |   |   Instance_name = HUMAK1-DONOR-10237: EI (0.0)
|   |   |   |   |   |   Instance_name = HUMALBGC-DONOR-1825: EI (0.0)
|   |   |   |   |   |   Instance_name = HUMALBGC-DONOR-2592: EI (0.0)
|   |   |   |   |   |   Instance_name = HUMALBGC-DONOR-4179: EI (0.0)
|   |   |   |   |   |   Instance_name = HUMALBGC-DONOR-6223: EI (0.0)
|   |   |   |   |   |   Instance_name = HUMALBGC-DONOR-6905: EI (0.0)
|   |   |   |   |   |   Instance_name = HUMALBGC-DONOR-7827: EI (0.0)
|   |   |   |   |   |   Instance_name = HUMALBGC-DONOR-9544: EI (0.0)
|   |   |   |   |   |   Instance_name = HUMALBGC-DONOR-11052: EI (0.0)
|   |   |   |   |   |   Instance_name = HUMALBGC-DONOR-12584: EI (0.0)
|   |   |   |   |   |   Instance_name = HUMALBGC-DONOR-13770: EI (0.0)
|   |   |   |   |   |   Instance_name = HUMALBGC-DONOR-15086: EI (0.0)
|   |   |   |   |   |   Instance_name = HUMALBGC-DONOR-15728: EI (0.0)
|   |   |   |   |   |   Instance_name = HUMALBGC-DONOR-17044: EI (0.0)
|   |   |   |   |   |   Instance_name = HUMALBGC-DONOR-17726: EI (0.0)
|   |   |   |   |   |   Instance_name = HUMALPHA-DONOR-487: EI (0.0)
|   |   |   |   |   |   Instance_name = HUMALPHA-DONOR-698: EI (0.0)
|   |   |   |   |   |   Instance_name = HUMALPHA-DONOR-925: EI (0.0)
|   |   |   |   |   |   Instance_name = HUMALPHA-DONOR-1292: EI (0.0)
|   |   |   |   |   |   Instance_name = HUMALPHA-DONOR-1542: EI (0.0)
|   |   |   |   |   |   Instance_name = HUMALPHA-DONOR-1924: EI (0.0)
|   |   |   |   |   |   Instance_name = HUMALPHA-DONOR-2096: EI (0.0)
|   |   |   |   |   |   Instance_name = HUMALPHA-DONOR-2359: EI (0.0)
|   |   |   |   |   |   Instance_name = HUMALPHA-DONOR-2632: EI (0.0)
|   |   |   |   |   |   Instance_name = HUMALPHA-DONOR-2968: EI (0.0)
|   |   |   |   |   |   Instance_name = HUMALPI-DONOR-333: EI (0.0)
|   |   |   |   |   |   Instance_name = HUMALPI-DONOR-532: EI (0.0)
|   |   |   |   |   |   Instance_name = HUMALPI-DONOR-762: EI (0.0)
|   |   |   |   |   |   Instance_name = HUMALPI-DONOR-1140: EI (1.0)
|   |   |   |   |   |   Instance_name = HUMALPI-DONOR-1389: EI (0.0)
|   |   |   |   |   |   Instance_name = HUMALPI-DONOR-1766: EI (0.0)
|   |   |   |   |   |   Instance_name = HUMALPI-DONOR-1934: EI (0.0)
|   |   |   |   |   |   Instance_name = HUMALPI-DONOR-2199: EI (0.0)
|   |   |   |   |   |   Instance_name = HUMALPI-DONOR-2475: EI (0.0)
|   |   |   |   |   |   Instance_name = HUMALPI-DONOR-2815: EI (0.0)
|   |   |   |   |   |   Instance_name = HUMALPI1-DONOR-42: EI (0.0)
|   |   |   |   |   |   Instance_name = HUMALPPD-DONOR-100: EI (0.0)
|   |   |   |   |   |   Instance_name = HUMALPPD-DONOR-309: EI (0.0)
|   |   |   |   |   |   Instance_name = HUMALPPD-DONOR-537: EI (0.0)
|   |   |   |   |   |   Instance_name = HUMALPPD-DONOR-909: EI (1.0)
|   |   |   |   |   |   Instance_name = HUMALPPD-DONOR-1158: EI (0.0)
|   |   |   |   |   |   Instance_name = HUMALPPD-DONOR-1543: EI (0.0)
|   |   |   |   |   |   Instance_name = HUMALPPD-DONOR-1715: EI (0.0)
|   |   |   |   |   |   Instance_name = HUMALPPD-DONOR-1980: EI (0.0)
|   |   |   |   |   |   Instance_name = HUMALPPD-DONOR-2254: EI (0.0)
|   |   |   |   |   |   Instance_name = HUMALPPD-DONOR-2590: EI (0.0)
|   |   |   |   |   |   Instance_name = HUMANFA-DONOR-663: EI (0.0)
|   |   |   |   |   |   Instance_name = HUMANFA-DONOR-1112: EI (0.0)
|   |   |   |   |   |   Instance_name = HUMANT1-DONOR-1688: EI (1.0)
|   |   |   |   |   |   Instance_name = HUMANT1-DONOR-3442: EI (0.0)
|   |   |   |   |   |   Instance_name = HUMANT1-DONOR-4091: EI (0.0)
|   |   |   |   |   |   Instance_name = HUMAPOA4A-DONOR-1025: EI (0.0)
|   |   |   |   |   |   Instance_name = HUMAPOA4A-DONOR-1509: EI (0.0)
|   |   |   |   |   |   Instance_name = HUMAPOAI1-DONOR-457: EI (0.0)
|   |   |   |   |   |   Instance_name = HUMAPOAI1-DONOR-716: EI (0.0)
|   |   |   |   |   |   Instance_name = HUMAPOAI1-DONOR-1059: EI (0.0)
|   |   |   |   |   |   Instance_name = HUMAPOAIT-DONOR-201: EI (0.0)
|   |   |   |   |   |   Instance_name = HUMAPOAIT-DONOR-461: EI (0.0)
|   |   |   |   |   |   Instance_name = HUMAPOAIT-DONOR-805: EI (0.0)
|   |   |   |   |   |   Instance_name = HUMAPOC2-DONOR-522: EI (0.0)
|   |   |   |   |   |   Instance_name = HUMAPOC2-DONOR-2976: EI (0.0)
|   |   |   |   |   |   Instance_name = HUMAPOC2-DONOR-3303: EI (0.0)
|   |   |   |   |   |   Instance_name = HUMAPOC2G-DONOR-225: EI (0.0)
|   |   |   |   |   |   Instance_name = HUMAPOC2G-DONOR-2684: EI (0.0)
|   |   |   |   |   |   Instance_name = HUMAPOC2G-DONOR-3011: EI (0.0)
|   |   |   |   |   |   Instance_name = HUMAPOCIA-DONOR-496: EI (1.0)
|   |   |   |   |   |   Instance_name = HUMAPOCIA-DONOR-712: EI (0.0)
|   |   |   |   |   |   Instance_name = HUMAPOCIA-DONOR-2092: EI (0.0)
|   |   |   |   |   |   Instance_name = HUMAPOCII-DONOR-541: EI (0.0)
|   |   |   |   |   |   Instance_name = HUMAPOCII-DONOR-2965: EI (0.0)
|   |   |   |   |   |   Instance_name = HUMAPOCII-DONOR-3291: EI (0.0)
|   |   |   |   |   |   Instance_name = HUMAPOE4-DONOR-1061: EI (0.0)
|   |   |   |   |   |   Instance_name = HUMAPOE4-DONOR-1884: EI (1.0)
|   |   |   |   |   |   Instance_name = HUMAPOE4-DONOR-3170: EI (0.0)
|   |   |   |   |   |   Instance_name = HUMAPRTA-DONOR-618: EI (0.0)
|   |   |   |   |   |   Instance_name = HUMAPRTA-DONOR-881: EI (0.0)
|   |   |   |   |   |   Instance_name = HUMAPRTA-DONOR-1982: EI (0.0)
|   |   |   |   |   |   Instance_name = HUMAPRTA-DONOR-2331: EI (0.0)
|   |   |   |   |   |   Instance_name = HUMATP1A2-DONOR-1663: EI (0.0)
|   |   |   |   |   |   Instance_name = HUMATP1A2-DONOR-6788: EI (0.0)
|   |   |   |   |   |   Instance_name = HUMATP1A2-DONOR-7029: EI (0.0)
|   |   |   |   |   |   Instance_name = HUMATP1A2-DONOR-9194: EI (0.0)
|   |   |   |   |   |   Instance_name = HUMATP1A2-DONOR-9834: EI (1.0)
|   |   |   |   |   |   Instance_name = HUMATP1A2-DONOR-10208: EI (0.0)
|   |   |   |   |   |   Instance_name = HUMATP1A2-DONOR-11031: EI (0.0)
|   |   |   |   |   |   Instance_name = HUMATP1A2-DONOR-12719: EI (0.0)
|   |   |   |   |   |   Instance_name = HUMATP1A2-DONOR-13749: EI (0.0)
|   |   |   |   |   |   Instance_name = HUMATP1A2-DONOR-14299: EI (1.0)
|   |   |   |   |   |   Instance_name = HUMATP1A2-DONOR-15190: EI (0.0)
|   |   |   |   |   |   Instance_name = HUMATP1A2-DONOR-15496: EI (0.0)
|   |   |   |   |   |   Instance_name = HUMATP1A2-DONOR-19518: EI (1.0)
|   |   |   |   |   |   Instance_name = HUMATP1A2-DONOR-20193: EI (1.0)
|   |   |   |   |   |   Instance_name = HUMATP1A2-DONOR-20500: EI (0.0)
|   |   |   |   |   |   Instance_name = HUMATP1A2-DONOR-20891: EI (0.0)
|   |   |   |   |   |   Instance_name = HUMATP1A2-DONOR-21268: EI (0.0)
|   |   |   |   |   |   Instance_name = HUMATP1A2-DONOR-21613: EI (0.0)
|   |   |   |   |   |   Instance_name = HUMATP1A2-DONOR-21929: EI (0.0)
|   |   |   |   |   |   Instance_name = HUMATP1A2-DONOR-22719: EI (0.0)
|   |   |   |   |   |   Instance_name = HUMATP1A2-DONOR-22962: EI (0.0)
|   |   |   |   |   |   Instance_name = HUMATPSYB-DONOR-2217: EI (0.0)
|   |   |   |   |   |   Instance_name = HUMATPSYB-DONOR-2881: EI (0.0)
|   |   |   |   |   |   Instance_name = HUMATPSYB-DONOR-3271: EI (0.0)
|   |   |   |   |   |   Instance_name = HUMATPSYB-DONOR-4215: EI (0.0)
|   |   |   |   |   |   Instance_name = HUMATPSYB-DONOR-4649: EI (0.0)
|   |   |   |   |   |   Instance_name = HUMATPSYB-DONOR-5379: EI (0.0)
|   |   |   |   |   |   Instance_name = HUMATPSYB-DONOR-5594: EI (1.0)
|   |   |   |   |   |   Instance_name = HUMATPSYB-DONOR-8071: EI (1.0)
|   |   |   |   |   |   Instance_name = HUMATPSYB-DONOR-8947: EI (1.0)
|   |   |   |   |   |   Instance_name = HUMBLYM1-DONOR-127: EI (0.0)
|   |   |   |   |   |   Instance_name = HUMBNPA-DONOR-600: EI (1.0)
|   |   |   |   |   |   Instance_name = HUMBNPA-DONOR-1087: EI (0.0)
|   |   |   |   |   |   Instance_name = HUMCACY-DONOR-1386: EI (0.0)
|   |   |   |   |   |   Instance_name = HUMCACY-DONOR-2132: EI (0.0)
|   |   |   |   |   |   Instance_name = HUMCAPG-DONOR-375: EI (1.0)
|   |   |   |   |   |   Instance_name = HUMCAPG-DONOR-1279: EI (0.0)
|   |   |   |   |   |   Instance_name = HUMCAPG-DONOR-1869: EI (0.0)
|   |   |   |   |   |   Instance_name = HUMCAPG-DONOR-2299: EI (0.0)
|   |   |   |   |   |   Instance_name = HUMCATF-DONOR-646: EI (0.0)
|   |   |   |   |   |   Instance_name = HUMCFVII-DONOR-556: EI (1.0)
|   |   |   |   |   |   Instance_name = HUMCFVII-DONOR-1690: EI (0.0)
|   |   |   |   |   |   Instance_name = HUMCFVII-DONOR-4425: EI (0.0)
|   |   |   |   |   |   Instance_name = HUMCFVII-DONOR-6378: EI (0.0)
|   |   |   |   |   |   Instance_name = HUMCFVII-DONOR-6562: EI (0.0)
|   |   |   |   |   |   Instance_name = HUMCFVII-DONOR-8418: EI (0.0)
|   |   |   |   |   |   Instance_name = HUMCFVII-DONOR-9499: EI (1.0)
|   |   |   |   |   |   Instance_name = HUMCFVII-DONOR-10218: EI (0.0)
|   |   |   |   |   |   Instance_name = HUMCKMT-DONOR-523: EI (0.0)
|   |   |   |   |   |   Instance_name = HUMCKMT-DONOR-1326: EI (0.0)
|   |   |   |   |   |   Instance_name = HUMCKMT-DONOR-1625: EI (0.0)
|   |   |   |   |   |   Instance_name = HUMCKMT-DONOR-2233: EI (0.0)
|   |   |   |   |   |   Instance_name = HUMCKMT-DONOR-2448: EI (0.0)
|   |   |   |   |   |   Instance_name = HUMCKMT-DONOR-2687: EI (0.0)
|   |   |   |   |   |   Instance_name = HUMCKMT-DONOR-4483: EI (0.0)
|   |   |   |   |   |   Instance_name = HUMCKMT-DONOR-5110: EI (0.0)
|   |   |   |   |   |   Instance_name = HUMCP21OH-DONOR-917: EI (0.0)
|   |   |   |   |   |   Instance_name = HUMCP21OH-DONOR-1104: EI (0.0)
|   |   |   |   |   |   Instance_name = HUMCP21OH-DONOR-1541: EI (0.0)
|   |   |   |   |   |   Instance_name = HUMCP21OH-DONOR-1750: EI (0.0)
|   |   |   |   |   |   Instance_name = HUMCP21OH-DONOR-1940: EI (0.0)
|   |   |   |   |   |   Instance_name = HUMCP21OH-DONOR-2128: EI (0.0)
|   |   |   |   |   |   Instance_name = HUMCP21OH-DONOR-2498: EI (0.0)
|   |   |   |   |   |   Instance_name = HUMCP21OH-DONOR-2877: EI (0.0)
|   |   |   |   |   |   Instance_name = HUMCP21OH-DONOR-3064: EI (0.0)
|   |   |   |   |   |   Instance_name = HUMCP21OHC-DONOR-918: EI (0.0)
|   |   |   |   |   |   Instance_name = HUMCP21OHC-DONOR-1105: EI (0.0)
|   |   |   |   |   |   Instance_name = HUMCP21OHC-DONOR-1542: EI (0.0)
|   |   |   |   |   |   Instance_name = HUMCP21OHC-DONOR-1751: EI (0.0)
|   |   |   |   |   |   Instance_name = HUMCP21OHC-DONOR-1941: EI (0.0)
|   |   |   |   |   |   Instance_name = HUMCP21OHC-DONOR-2129: EI (0.0)
|   |   |   |   |   |   Instance_name = HUMCP21OHC-DONOR-2499: EI (0.0)
|   |   |   |   |   |   Instance_name = HUMCP21OHC-DONOR-2878: EI (0.0)
|   |   |   |   |   |   Instance_name = HUMCP21OHC-DONOR-3066: EI (0.0)
|   |   |   |   |   |   Instance_name = HUMCRPG-DONOR-300: EI (1.0)
|   |   |   |   |   |   Instance_name = HUMCRPGA-DONOR-261: EI (1.0)
|   |   |   |   |   |   Instance_name = HUMCRYGBC-DONOR-2131: EI (0.0)
|   |   |   |   |   |   Instance_name = HUMCRYGBC-DONOR-2468: EI (0.0)
|   |   |   |   |   |   Instance_name = HUMCRYGBC-DONOR-18389: EI (0.0)
|   |   |   |   |   |   Instance_name = HUMCRYGBC-DONOR-18732: EI (0.0)
|   |   |   |   |   |   Instance_name = HUMCS1-DONOR-535: EI (1.0)
|   |   |   |   |   |   Instance_name = HUMCS1-DONOR-961: EI (0.0)
|   |   |   |   |   |   Instance_name = HUMCS1-DONOR-1304: EI (0.0)
|   |   |   |   |   |   Instance_name = HUMCS1-DONOR-1561: EI (0.0)
|   |   |   |   |   |   Instance_name = HUMCSFGMA-DONOR-793: EI (0.0)
|   |   |   |   |   |   Instance_name = HUMCSFGMA-DONOR-933: EI (1.0)
|   |   |   |   |   |   Instance_name = HUMCSFGMA-DONOR-1746: EI (0.0)
|   |   |   |   |   |   Instance_name = HUMCSPB-DONOR-258: EI (1.0)
|   |   |   |   |   |   Instance_name = HUMCSPB-DONOR-1408: EI (0.0)
|   |   |   |   |   |   Instance_name = HUMCSPB-DONOR-2010: EI (1.0)
|   |   |   |   |   |   Instance_name = HUMCSPB-DONOR-2478: EI (0.0)
|   |   |   |   |   |   Instance_name = HUMCYC1A-DONOR-1506: EI (1.0)
|   |   |   |   |   |   Instance_name = HUMCYC1A-DONOR-2305: EI (1.0)
|   |   |   |   |   |   Instance_name = HUMCYC1A-DONOR-2526: EI (0.0)
|   |   |   |   |   |   Instance_name = HUMCYC1A-DONOR-2769: EI (0.0)
|   |   |   |   |   |   Instance_name = HUMCYC1A-DONOR-3019: EI (0.0)
|   |   |   |   |   |   Instance_name = HUMCYC1A-DONOR-3382: EI (0.0)
|   |   |   |   |   |   Instance_name = HUMCYCAA-DONOR-115: EI (0.0)
|   |   |   |   |   |   Instance_name = HUMCYCAA-DONOR-1365: EI (0.0)
|   |   |   |   |   |   Instance_name = HUMCYPIIE-DONOR-2972: EI (0.0)
|   |   |   |   |   |   Instance_name = HUMCYPIIE-DONOR-4037: EI (0.0)
|   |   |   |   |   |   Instance_name = HUMCYPIIE-DONOR-7126: EI (0.0)
|   |   |   |   |   |   Instance_name = HUMCYPIIE-DONOR-7676: EI (0.0)
|   |   |   |   |   |   Instance_name = HUMCYPIIE-DONOR-8260: EI (0.0)
|   |   |   |   |   |   Instance_name = HUMCYPIIE-DONOR-9284: EI (0.0)
|   |   |   |   |   |   Instance_name = HUMCYPIIE-DONOR-12309: EI (0.0)
|   |   |   |   |   |   Instance_name = HUMCYPIIE-DONOR-12950: EI (1.0)
|   |   |   |   |   |   Instance_name = HUMDAFA-DONOR-1117: EI (0.0)
|   |   |   |   |   |   Instance_name = HUMDES-DONOR-711: EI (0.0)
|   |   |   |   |   |   Instance_name = HUMDES-DONOR-1824: EI (0.0)
|   |   |   |   |   |   Instance_name = HUMDES-DONOR-2016: EI (0.0)
|   |   |   |   |   |   Instance_name = HUMDES-DONOR-2326: EI (0.0)
|   |   |   |   |   |   Instance_name = HUMDES-DONOR-2630: EI (0.0)
|   |   |   |   |   |   Instance_name = HUMDES-DONOR-3236: EI (0.0)
|   |   |   |   |   |   Instance_name = HUMDES-DONOR-5457: EI (0.0)
|   |   |   |   |   |   Instance_name = HUMDES-DONOR-7366: EI (0.0)
|   |   |   |   |   |   Instance_name = HUMEDHB17-DONOR-1938: EI (0.0)
|   |   |   |   |   |   Instance_name = HUMEDHB17-DONOR-2199: EI (0.0)
|   |   |   |   |   |   Instance_name = HUMEDHB17-DONOR-2526: EI (0.0)
|   |   |   |   |   |   Instance_name = HUMEDHB17-DONOR-2795: EI (0.0)
|   |   |   |   |   |   Instance_name = HUMEDHB17-DONOR-3489: EI (0.0)
|   |   |   |   |   |   Instance_name = HUMEF1A-DONOR-579: EI (1.0)
|   |   |   |   |   |   Instance_name = HUMEF1A-DONOR-1696: EI (0.0)
|   |   |   |   |   |   Instance_name = HUMEF1A-DONOR-2242: EI (1.0)
|   |   |   |   |   |   Instance_name = HUMEF1A-DONOR-2644: EI (0.0)
|   |   |   |   |   |   Instance_name = HUMEF1A-DONOR-2878: EI (0.0)
|   |   |   |   |   |   Instance_name = HUMEF1A-DONOR-3222: EI (0.0)
|   |   |   |   |   |   Instance_name = HUMEF1A-DONOR-3546: EI (0.0)
|   |   |   |   |   |   Instance_name = HUMERP-DONOR-598: EI (0.0)
|   |   |   |   |   |   Instance_name = HUMERP-DONOR-1310: EI (0.0)
|   |   |   |   |   |   Instance_name = HUMERP-DONOR-1653: EI (0.0)
|   |   |   |   |   |   Instance_name = HUMERP-DONOR-2444: EI (1.0)
|   |   |   |   |   |   Instance_name = HUMERPA-DONOR-608: EI (0.0)
|   |   |   |   |   |   Instance_name = HUMERPA-DONOR-1317: EI (0.0)
|   |   |   |   |   |   Instance_name = HUMERPA-DONOR-1662: EI (0.0)
|   |   |   |   |   |   Instance_name = HUMERPA-DONOR-2453: EI (1.0)
|   |   |   |   |   |   Instance_name = HUMETN3-DONOR-227: EI (1.0)
|   |   |   |   |   |   Instance_name = HUMFABP-DONOR-1126: EI (0.0)
|   |   |   |   |   |   Instance_name = HUMFABP-DONOR-2493: EI (0.0)
|   |   |   |   |   |   Instance_name = HUMFABP-DONOR-3624: EI (1.0)
|   |   |   |   |   |   Instance_name = HUMFIXG-DONOR-3053: EI (1.0)
|   |   |   |   |   |   Instance_name = HUMFIXG-DONOR-9425: EI (0.0)
|   |   |   |   |   |   Instance_name = HUMFIXG-DONOR-9638: EI (0.0)
|   |   |   |   |   |   Instance_name = HUMFIXG-DONOR-13441: EI (0.0)
|   |   |   |   |   |   Instance_name = HUMFIXG-DONOR-20733: EI (0.0)
|   |   |   |   |   |   Instance_name = HUMFIXG-DONOR-23501: EI (0.0)
|   |   |   |   |   |   Instance_name = HUMFIXG-DONOR-33089: EI (0.0)
|   |   |   |   |   |   Instance_name = HUMFOS-DONOR-1000: EI (1.0)
|   |   |   |   |   |   Instance_name = HUMFOS-DONOR-2005: EI (1.0)
|   |   |   |   |   |   Instance_name = HUMFOS-DONOR-2544: EI (0.0)
|   |   |   |   |   |   Instance_name = HUMFVII-DONOR-70: EI (0.0)
|   |   |   |   |   |   Instance_name = HUMG0S19A-DONOR-2124: EI (0.0)
|   |   |   |   |   |   Instance_name = HUMG0S19A-DONOR-2927: EI (0.0)
|   |   |   |   |   |   Instance_name = HUMG0S19B-DONOR-2263: EI (0.0)
|   |   |   |   |   |   Instance_name = HUMG0S19B-DONOR-3063: EI (0.0)
|   |   |   |   |   |   Instance_name = HUMGAST2-DONOR-786: EI (1.0)
|   |   |   |   |   |   Instance_name = HUMGASTA-DONOR-3213: EI (1.0)
|   |   |   |   |   |   Instance_name = HUMGASTA-DONOR-6470: EI (1.0)
|   |   |   |   |   |   Instance_name = HUMGCB1-DONOR-581: EI (0.0)
|   |   |   |   |   |   Instance_name = HUMGCB1-DONOR-1037: EI (1.0)
|   |   |   |   |   |   Instance_name = HUMGCB1-DONOR-1782: EI (0.0)
|   |   |   |   |   |   Instance_name = HUMGCB1-DONOR-2052: EI (0.0)
|   |   |   |   |   |   Instance_name = HUMGCB1-DONOR-3143: EI (0.0)
|   |   |   |   |   |   Instance_name = HUMGCB1-DONOR-3526: EI (0.0)
|   |   |   |   |   |   Instance_name = HUMGCB1-DONOR-4319: EI (0.0)
|   |   |   |   |   |   Instance_name = HUMGCB1-DONOR-5411: EI (0.0)
|   |   |   |   |   |   Instance_name = HUMGCB1-DONOR-5974: EI (1.0)
|   |   |   |   |   |   Instance_name = HUMGCB1-DONOR-6461: EI (0.0)
|   |   |   |   |   |   Instance_name = HUMGFP40H-DONOR-880: EI (1.0)
|   |   |   |   |   |   Instance_name = HUMGFP40H-DONOR-1028: EI (0.0)
|   |   |   |   |   |   Instance_name = HUMGFP40H-DONOR-1143: EI (0.0)
|   |   |   |   |   |   Instance_name = HUMGFP40H-DONOR-2563: EI (0.0)
|   |   |   |   |   |   Instance_name = HUMGG-DONOR-230: EI (0.0)
|   |   |   |   |   |   Instance_name = HUMGG-DONOR-1964: EI (1.0)
|   |   |   |   |   |   Instance_name = HUMGG-DONOR-3769: EI (0.0)
|   |   |   |   |   |   Instance_name = HUMGH-DONOR-315: EI (1.0)
|   |   |   |   |   |   Instance_name = HUMGH-DONOR-732: EI (0.0)
|   |   |   |   |   |   Instance_name = HUMGH-DONOR-1061: EI (0.0)
|   |   |   |   |   |   Instance_name = HUMGH-DONOR-1319: EI (0.0)
|   |   |   |   |   |   Instance_name = HUMGHCSA-DONOR-5205: EI (1.0)
|   |   |   |   |   |   Instance_name = HUMGHCSA-DONOR-5626: EI (0.0)
|   |   |   |   |   |   Instance_name = HUMGHCSA-DONOR-5955: EI (0.0)
|   |   |   |   |   |   Instance_name = HUMGHCSA-DONOR-6212: EI (0.0)
|   |   |   |   |   |   Instance_name = HUMGHCSA-DONOR-12784: EI (1.0)
|   |   |   |   |   |   Instance_name = HUMGHCSA-DONOR-13226: EI (0.0)
|   |   |   |   |   |   Instance_name = HUMGHCSA-DONOR-13551: EI (0.0)
|   |   |   |   |   |   Instance_name = HUMGHCSA-DONOR-13807: EI (0.0)
|   |   |   |   |   |   Instance_name = HUMGHCSA-DONOR-27451: EI (1.0)
|   |   |   |   |   |   Instance_name = HUMGHCSA-DONOR-27878: EI (0.0)
|   |   |   |   |   |   Instance_name = HUMGHCSA-DONOR-28221: EI (0.0)
|   |   |   |   |   |   Instance_name = HUMGHCSA-DONOR-28478: EI (0.0)
|   |   |   |   |   |   Instance_name = HUMGHCSA-DONOR-42122: EI (1.0)
|   |   |   |   |   |   Instance_name = HUMGHCSA-DONOR-42555: EI (0.0)
|   |   |   |   |   |   Instance_name = HUMGHCSA-DONOR-42885: EI (0.0)
|   |   |   |   |   |   Instance_name = HUMGHCSA-DONOR-43141: EI (0.0)
|   |   |   |   |   |   Instance_name = HUMGHCSA-DONOR-50275: EI (1.0)
|   |   |   |   |   |   Instance_name = HUMGHCSA-DONOR-50700: EI (0.0)
|   |   |   |   |   |   Instance_name = HUMGHCSA-DONOR-51042: EI (0.0)
|   |   |   |   |   |   Instance_name = HUMGHCSA-DONOR-51300: EI (0.0)
|   |   |   |   |   |   Instance_name = HUMGHN-DONOR-539: EI (1.0)
|   |   |   |   |   |   Instance_name = HUMGHN-DONOR-959: EI (0.0)
|   |   |   |   |   |   Instance_name = HUMGHN-DONOR-1286: EI (0.0)
|   |   |   |   |   |   Instance_name = HUMGHN-DONOR-1544: EI (0.0)
|   |   |   |   |   |   Instance_name = HUMGHVA-DONOR-488: EI (0.0)
|   |   |   |   |   |   Instance_name = HUMGPIBAA-DONOR-2800: EI (0.0)
|   |   |   |   |   |   Instance_name = HUMGRP78-DONOR-685: EI (0.0)
|   |   |   |   |   |   Instance_name = HUMGRP78-DONOR-1007: EI (0.0)
|   |   |   |   |   |   Instance_name = HUMGRP78-DONOR-1510: EI (0.0)
|   |   |   |   |   |   Instance_name = HUMGRP78-DONOR-2258: EI (0.0)
|   |   |   |   |   |   Instance_name = HUMGRP78-DONOR-2735: EI (0.0)
|   |   |   |   |   |   Instance_name = HUMGRP78-DONOR-3086: EI (1.0)
|   |   |   |   |   |   Instance_name = HUMGRP78-DONOR-3539: EI (0.0)
|   |   |   |   |   |   Instance_name = HUMGSHPXG-DONOR-690: EI (1.0)
|   |   |   |   |   |   Instance_name = HUMH19-DONOR-2128: EI (0.0)
|   |   |   |   |   |   Instance_name = HUMH19-DONOR-2359: EI (0.0)
|   |   |   |   |   |   Instance_name = HUMH19-DONOR-2562: EI (0.0)
|   |   |   |   |   |   Instance_name = HUMH19-DONOR-2766: EI (0.0)
|   |   |   |   |   |   Instance_name = HUMHBA4-DONOR-6768: EI (0.0)
|   |   |   |   |   |   Instance_name = HUMHBA4-DONOR-7090: EI (0.0)
|   |   |   |   |   |   Instance_name = HUMHBA4-DONOR-10579: EI (0.0)
|   |   |   |   |   |   Instance_name = HUMHBA4-DONOR-10901: EI (0.0)
|   |   |   |   |   |   Instance_name = HUMHBBAG-DONOR-1344: EI (0.0)
|   |   |   |   |   |   Instance_name = HUMHBBAG-DONOR-1689: EI (0.0)
|   |   |   |   |   |   Instance_name = HUMHBBGG-DONOR-2241: EI (0.0)
|   |   |   |   |   |   Instance_name = HUMHIAPPA-DONOR-629: EI (0.0)
|   |   |   |   |   |   Instance_name = HUMHIAPPA-DONOR-1054: EI (0.0)
|   |   |   |   |   |   Instance_name = HUMHMG14A-DONOR-1039: EI (0.0)
|   |   |   |   |   |   Instance_name = HUMHMG14A-DONOR-1394: EI (0.0)
|   |   |   |   |   |   Instance_name = HUMHMG14A-DONOR-1517: EI (0.0)
|   |   |   |   |   |   Instance_name = HUMHMG14A-DONOR-1647: EI (0.0)
|   |   |   |   |   |   Instance_name = HUMHMG14A-DONOR-4792: EI (0.0)
|   |   |   |   |   |   Instance_name = HUMHPARS1-DONOR-1016: EI (0.0)
|   |   |   |   |   |   Instance_name = HUMHPARS1-DONOR-2602: EI (1.0)
|   |   |   |   |   |   Instance_name = HUMHPARS1-DONOR-2990: EI (0.0)
|   |   |   |   |   |   Instance_name = HUMHPARS1-DONOR-3825: EI (1.0)
|   |   |   |   |   |   Instance_name = HUMHPARS1-DONOR-4714: EI (0.0)
|   |   |   |   |   |   Instance_name = HUMHPARS1-DONOR-5547: EI (1.0)
|   |   |   |   |   |   Instance_name = HUMHPRTB-DONOR-1674: EI (0.0)
|   |   |   |   |   |   Instance_name = HUMHPRTB-DONOR-14857: EI (1.0)
|   |   |   |   |   |   Instance_name = HUMHPRTB-DONOR-16757: EI (0.0)
|   |   |   |   |   |   Instance_name = HUMHPRTB-DONOR-27927: EI (0.0)
|   |   |   |   |   |   Instance_name = HUMHPRTB-DONOR-31605: EI (0.0)
|   |   |   |   |   |   Instance_name = HUMHPRTB-DONOR-34990: EI (0.0)
|   |   |   |   |   |   Instance_name = HUMHPRTB-DONOR-39832: EI (0.0)
|   |   |   |   |   |   Instance_name = HUMHPRTB-DONOR-40080: EI (0.0)
|   |   |   |   |   |   Instance_name = HUMHSP90B-DONOR-1172: EI (0.0)
|   |   |   |   |   |   Instance_name = HUMHSP90B-DONOR-2752: EI (0.0)
|   |   |   |   |   |   Instance_name = HUMHSP90B-DONOR-3558: EI (0.0)
|   |   |   |   |   |   Instance_name = HUMHSP90B-DONOR-3809: EI (0.0)
|   |   |   |   |   |   Instance_name = HUMHSP90B-DONOR-4129: EI (0.0)
|   |   |   |   |   |   Instance_name = HUMHSP90B-DONOR-4574: EI (0.0)
|   |   |   |   |   |   Instance_name = HUMHSP90B-DONOR-5188: EI (0.0)
|   |   |   |   |   |   Instance_name = HUMHSP90B-DONOR-5582: EI (0.0)
|   |   |   |   |   |   Instance_name = HUMHSP90B-DONOR-5858: EI (0.0)
|   |   |   |   |   |   Instance_name = HUMHSP90B-DONOR-6241: EI (0.0)
|   |   |   |   |   |   Instance_name = HUMHSP90B-DONOR-7352: EI (0.0)
|   |   |   |   |   |   Instance_name = HUMHST-DONOR-2861: EI (0.0)
|   |   |   |   |   |   Instance_name = HUMHST-DONOR-3582: EI (0.0)
|   |   |   |   |   |   Instance_name = HUMIFNINI-DONOR-2232: EI (0.0)
|   |   |   |   |   |   Instance_name = HUMIFNINI-DONOR-2912: EI (0.0)
|   |   |   |   |   |   Instance_name = HUMIFNINI-DONOR-3237: EI (0.0)
|   |   |   |   |   |   Instance_name = HUMIL1B-DONOR-416: EI (0.0)
|   |   |   |   |   |   Instance_name = HUMIL1B-DONOR-941: EI (1.0)
|   |   |   |   |   |   Instance_name = HUMIL1B-DONOR-1558: EI (0.0)
|   |   |   |   |   |   Instance_name = HUMIL1B-DONOR-3748: EI (0.0)
|   |   |   |   |   |   Instance_name = HUMIL1B-DONOR-4458: EI (0.0)
|   |   |   |   |   |   Instance_name = HUMIL1B-DONOR-5824: EI (0.0)
|   |   |   |   |   |   Instance_name = HUMIL2-DONOR-595: EI (0.0)
|   |   |   |   |   |   Instance_name = HUMIL2-DONOR-745: EI (0.0)
|   |   |   |   |   |   Instance_name = HUMIL2-DONOR-3182: EI (0.0)
|   |   |   |   |   |   Instance_name = HUMIL2A-DONOR-1533: EI (0.0)
|   |   |   |   |   |   Instance_name = HUMIL2A-DONOR-1683: EI (0.0)
|   |   |   |   |   |   Instance_name = HUMIL2A-DONOR-4119: EI (0.0)
|   |   |   |   |   |   Instance_name = HUMIL2B-DONOR-410: EI (0.0)
|   |   |   |   |   |   Instance_name = HUMIL2B-DONOR-560: EI (0.0)
|   |   |   |   |   |   Instance_name = HUMIL2B-DONOR-2996: EI (0.0)
|   |   |   |   |   |   Instance_name = HUMIL5-DONOR-667: EI (0.0)
|   |   |   |   |   |   Instance_name = HUMIL5-DONOR-908: EI (0.0)
|   |   |   |   |   |   Instance_name = HUMIL5-DONOR-1982: EI (0.0)
|   |   |   |   |   |   Instance_name = HUMIL5A-DONOR-666: EI (0.0)
|   |   |   |   |   |   Instance_name = HUMIL5A-DONOR-907: EI (0.0)
|   |   |   |   |   |   Instance_name = HUMIL5A-DONOR-1986: EI (0.0)
|   |   |   |   |   |   Instance_name = HUMINCP-DONOR-539: EI (1.0)
|   |   |   |   |   |   Instance_name = HUMINCP-DONOR-2163: EI (0.0)
|   |   |   |   |   |   Instance_name = HUMINCPPS-DONOR-940: EI (0.0)
|   |   |   |   |   |   Instance_name = HUMINCPPS-DONOR-2825: EI (0.0)
|   |   |   |   |   |   Instance_name = HUMIRBPG-DONOR-3151: EI (1.0)
|   |   |   |   |   |   Instance_name = HUMIRBPG-DONOR-5127: EI (0.0)
|   |   |   |   |   |   Instance_name = HUMIRBPG-DONOR-7130: EI (0.0)
|   |   |   |   |   |   Instance_name = HUMKAL2-DONOR-539: EI (0.0)
|   |   |   |   |   |   Instance_name = HUMKAL2-DONOR-1905: EI (0.0)
|   |   |   |   |   |   Instance_name = HUMKAL2-DONOR-3781: EI (0.0)
|   |   |   |   |   |   Instance_name = HUMKAL2-DONOR-4031: EI (0.0)
|   |   |   |   |   |   Instance_name = HUMKER18-DONOR-2967: EI (1.0)
|   |   |   |   |   |   Instance_name = HUMKER18-DONOR-3791: EI (0.0)
|   |   |   |   |   |   Instance_name = HUMKER18-DONOR-4285: EI (0.0)
|   |   |   |   |   |   Instance_name = HUMKER18-DONOR-5022: EI (1.0)
|   |   |   |   |   |   Instance_name = HUMKER18-DONOR-5233: EI (0.0)
|   |   |   |   |   |   Instance_name = HUMKER18-DONOR-5719: EI (0.0)
|   |   |   |   |   |   Instance_name = HUMKEREP-DONOR-814: EI (0.0)
|   |   |   |   |   |   Instance_name = HUMKEREP-DONOR-2153: EI (0.0)
|   |   |   |   |   |   Instance_name = HUMKEREP-DONOR-2872: EI (0.0)
|   |   |   |   |   |   Instance_name = HUMKEREP-DONOR-3368: EI (0.0)
|   |   |   |   |   |   Instance_name = HUMKEREP-DONOR-3577: EI (0.0)
|   |   |   |   |   |   Instance_name = HUMKEREP-DONOR-3892: EI (0.0)
|   |   |   |   |   |   Instance_name = HUMKEREP-DONOR-4033: EI (0.0)
|   |   |   |   |   |   Instance_name = HUMLACTA-DONOR-865: EI (0.0)
|   |   |   |   |   |   Instance_name = HUMLACTA-DONOR-1671: EI (0.0)
|   |   |   |   |   |   Instance_name = HUMLACTA-DONOR-2236: EI (0.0)
|   |   |   |   |   |   Instance_name = HUMLYL1B-DONOR-882: EI (0.0)
|   |   |   |   |   |   Instance_name = HUMLYL1B-DONOR-2543: EI (0.0)
|   |   |   |   |   |   Instance_name = HUMLYL1B-DONOR-2722: EI (0.0)
|   |   |   |   |   |   Instance_name = HUMMETIF1-DONOR-480: EI (0.0)
|   |   |   |   |   |   Instance_name = HUMMETIF1-DONOR-1131: EI (0.0)
|   |   |   |   |   |   Instance_name = HUMMH6-DONOR-826: EI (0.0)
|   |   |   |   |   |   Instance_name = HUMMH6-DONOR-1225: EI (0.0)
|   |   |   |   |   |   Instance_name = HUMMH6-DONOR-1727: EI (0.0)
|   |   |   |   |   |   Instance_name = HUMMH6-DONOR-2602: EI (0.0)
|   |   |   |   |   |   Instance_name = HUMMH6-DONOR-2841: EI (1.0)
|   |   |   |   |   |   Instance_name = HUMMH6-DONOR-3321: EI (0.0)
|   |   |   |   |   |   Instance_name = HUMMH6-DONOR-3506: EI (0.0)
|   |   |   |   |   |   Instance_name = HUMMHANTLE-DONOR-1239: EI (0.0)
|   |   |   |   |   |   Instance_name = HUMMHANTLE-DONOR-1633: EI (0.0)
|   |   |   |   |   |   Instance_name = HUMMHANTLE-DONOR-2150: EI (0.0)
|   |   |   |   |   |   Instance_name = HUMMHANTLE-DONOR-3008: EI (0.0)
|   |   |   |   |   |   Instance_name = HUMMHANTLE-DONOR-3227: EI (1.0)
|   |   |   |   |   |   Instance_name = HUMMHANTLE-DONOR-3700: EI (0.0)
|   |   |   |   |   |   Instance_name = HUMMHANTLE-DONOR-3889: EI (0.0)
|   |   |   |   |   |   Instance_name = HUMMHB27B-DONOR-561: EI (0.0)
|   |   |   |   |   |   Instance_name = HUMMHB27B-DONOR-960: EI (0.0)
|   |   |   |   |   |   Instance_name = HUMMHB27B-DONOR-1478: EI (0.0)
|   |   |   |   |   |   Instance_name = HUMMHB27B-DONOR-2329: EI (0.0)
|   |   |   |   |   |   Instance_name = HUMMHB27B-DONOR-2538: EI (1.0)
|   |   |   |   |   |   Instance_name = HUMMHB27B-DONOR-3013: EI (0.0)
|   |   |   |   |   |   Instance_name = HUMMHCD8A-DONOR-638: EI (0.0)
|   |   |   |   |   |   Instance_name = HUMMHCD8A-DONOR-1087: EI (1.0)
|   |   |   |   |   |   Instance_name = HUMMHCD8A-DONOR-1781: EI (1.0)
|   |   |   |   |   |   Instance_name = HUMMHCD8A-DONOR-2098: EI (0.0)
|   |   |   |   |   |   Instance_name = HUMMHCD8A-DONOR-2891: EI (0.0)
|   |   |   |   |   |   Instance_name = HUMMHCP42-DONOR-1848: EI (0.0)
|   |   |   |   |   |   Instance_name = HUMMHCP42-DONOR-2035: EI (0.0)
|   |   |   |   |   |   Instance_name = HUMMHCP42-DONOR-2471: EI (0.0)
|   |   |   |   |   |   Instance_name = HUMMHCP42-DONOR-2679: EI (0.0)
|   |   |   |   |   |   Instance_name = HUMMHCP42-DONOR-2869: EI (0.0)
|   |   |   |   |   |   Instance_name = HUMMHCP42-DONOR-3057: EI (0.0)
|   |   |   |   |   |   Instance_name = HUMMHCP42-DONOR-3427: EI (0.0)
|   |   |   |   |   |   Instance_name = HUMMHCP42-DONOR-3806: EI (0.0)
|   |   |   |   |   |   Instance_name = HUMMHCP42-DONOR-3993: EI (0.0)
|   |   |   |   |   |   Instance_name = HUMMHCP52-DONOR-382: EI (0.0)
|   |   |   |   |   |   Instance_name = HUMMHCP52-DONOR-569: EI (0.0)
|   |   |   |   |   |   Instance_name = HUMMHCP52-DONOR-1006: EI (0.0)
|   |   |   |   |   |   Instance_name = HUMMHCP52-DONOR-1216: EI (0.0)
|   |   |   |   |   |   Instance_name = HUMMHCP52-DONOR-1406: EI (0.0)
|   |   |   |   |   |   Instance_name = HUMMHCP52-DONOR-1594: EI (0.0)
|   |   |   |   |   |   Instance_name = HUMMHCP52-DONOR-1964: EI (0.0)
|   |   |   |   |   |   Instance_name = HUMMHCP52-DONOR-2344: EI (0.0)
|   |   |   |   |   |   Instance_name = HUMMHCP52-DONOR-2531: EI (0.0)
|   |   |   |   |   |   Instance_name = HUMMHCW1B-DONOR-754: EI (0.0)
|   |   |   |   |   |   Instance_name = HUMMHCW1B-DONOR-1152: EI (0.0)
|   |   |   |   |   |   Instance_name = HUMMHCW1B-DONOR-1674: EI (0.0)
|   |   |   |   |   |   Instance_name = HUMMHCW1B-DONOR-2537: EI (0.0)
|   |   |   |   |   |   Instance_name = HUMMHCW1B-DONOR-2778: EI (1.0)
|   |   |   |   |   |   Instance_name = HUMMHCW1B-DONOR-3250: EI (0.0)
|   |   |   |   |   |   Instance_name = HUMMHCW1B-DONOR-3405: EI (0.0)
|   |   |   |   |   |   Instance_name = HUMMHCW2B-DONOR-756: EI (0.0)
|   |   |   |   |   |   Instance_name = HUMMHCW2B-DONOR-1155: EI (0.0)
|   |   |   |   |   |   Instance_name = HUMMHCW2B-DONOR-1675: EI (0.0)
|   |   |   |   |   |   Instance_name = HUMMHCW2B-DONOR-2539: EI (0.0)
|   |   |   |   |   |   Instance_name = HUMMHCW2B-DONOR-2780: EI (1.0)
|   |   |   |   |   |   Instance_name = HUMMHCW2B-DONOR-3252: EI (0.0)
|   |   |   |   |   |   Instance_name = HUMMHCW2B-DONOR-3407: EI (0.0)
|   |   |   |   |   |   Instance_name = HUMMHDOB-DONOR-1105: EI (1.0)
|   |   |   |   |   |   Instance_name = HUMMHDOB-DONOR-2919: EI (0.0)
|   |   |   |   |   |   Instance_name = HUMMHDOB-DONOR-3639: EI (0.0)
|   |   |   |   |   |   Instance_name = HUMMHDOB-DONOR-4235: EI (0.0)
|   |   |   |   |   |   Instance_name = HUMMHDOB-DONOR-4518: EI (0.0)
|   |   |   |   |   |   Instance_name = HUMMHDRHA-DONOR-565: EI (0.0)
|   |   |   |   |   |   Instance_name = HUMMHDRHA-DONOR-3215: EI (0.0)
|   |   |   |   |   |   Instance_name = HUMMHDRHA-DONOR-3987: EI (0.0)
|   |   |   |   |   |   Instance_name = HUMMHDRHA-DONOR-4442: EI (0.0)
|   |   |   |   |   |   Instance_name = HUMMHEA-DONOR-739: EI (0.0)
|   |   |   |   |   |   Instance_name = HUMMHEA-DONOR-1139: EI (0.0)
|   |   |   |   |   |   Instance_name = HUMMHEA-DONOR-1657: EI (0.0)
|   |   |   |   |   |   Instance_name = HUMMHEA-DONOR-2554: EI (0.0)
|   |   |   |   |   |   Instance_name = HUMMHEA-DONOR-2795: EI (1.0)
|   |   |   |   |   |   Instance_name = HUMMHEA-DONOR-3578: EI (0.0)
|   |   |   |   |   |   Instance_name = HUMMHEA-DONOR-3725: EI (0.0)
|   |   |   |   |   |   Instance_name = HUMMIS-DONOR-593: EI (0.0)
|   |   |   |   |   |   Instance_name = HUMMIS-DONOR-1328: EI (0.0)
|   |   |   |   |   |   Instance_name = HUMMIS-DONOR-1609: EI (0.0)
|   |   |   |   |   |   Instance_name = HUMMIS-DONOR-1857: EI (1.0)
|   |   |   |   |   |   Instance_name = HUMMRP14A-DONOR-999: EI (0.0)
|   |   |   |   |   |   Instance_name = HUMMRP14A-DONOR-1551: EI (0.0)
|   |   |   |   |   |   Instance_name = HUMMRP8A-DONOR-1504: EI (0.0)
|   |   |   |   |   |   Instance_name = HUMMRP8A-DONOR-2152: EI (0.0)
|   |   |   |   |   |   Instance_name = HUMMT2A-DONOR-421: EI (0.0)
|   |   |   |   |   |   Instance_name = HUMMT2A-DONOR-1113: EI (0.0)
|   |   |   |   |   |   Instance_name = HUMMYC3L-DONOR-402: EI (0.0)
|   |   |   |   |   |   Instance_name = HUMMYC3L-DONOR-1271: EI (0.0)
|   |   |   |   |   |   Instance_name = HUMMYC3L-DONOR-2594: EI (0.0)
|   |   |   |   |   |   Instance_name = HUMMYCC-DONOR-2852: EI (1.0)
|   |   |   |   |   |   Instance_name = HUMMYCC-DONOR-5248: EI (0.0)
|   |   |   |   |   |   Instance_name = HUMMYCRT-DONOR-888: EI (0.0)
|   |   |   |   |   |   Instance_name = HUMMYCRT-DONOR-1883: EI (0.0)
|   |   |   |   |   |   Instance_name = HUMMYLCA-DONOR-644: EI (0.0)
|   |   |   |   |   |   Instance_name = HUMMYLCA-DONOR-952: EI (2.0)
|   |   |   |   |   |   Instance_name = HUMMYLCA-DONOR-1975: EI (0.0)
|   |   |   |   |   |   Instance_name = HUMMYLCA-DONOR-2388: EI (0.0)
|   |   |   |   |   |   Instance_name = HUMMYLCA-DONOR-2559: EI (0.0)
|   |   |   |   |   |   Instance_name = HUMOPS-DONOR-626: EI (0.0)
|   |   |   |   |   |   Instance_name = HUMOPS-DONOR-2578: EI (0.0)
|   |   |   |   |   |   Instance_name = HUMOPS-DONOR-3949: EI (0.0)
|   |   |   |   |   |   Instance_name = HUMOPS-DONOR-4305: EI (0.0)
|   |   |   |   |   |   Instance_name = HUMOTNPI-DONOR-508: EI (0.0)
|   |   |   |   |   |   Instance_name = HUMOTNPI-DONOR-1007: EI (0.0)
|   |   |   |   |   |   Instance_name = HUMP3A-DONOR-1299: EI (1.0)
|   |   |   |   |   |   Instance_name = HUMP45C17-DONOR-2106: EI (0.0)
|   |   |   |   |   |   Instance_name = HUMP45C17-DONOR-3913: EI (0.0)
|   |   |   |   |   |   Instance_name = HUMP45C17-DONOR-4376: EI (0.0)
|   |   |   |   |   |   Instance_name = HUMP45C17-DONOR-5125: EI (0.0)
|   |   |   |   |   |   Instance_name = HUMP45C17-DONOR-6035: EI (1.0)
|   |   |   |   |   |   Instance_name = HUMP45C17-DONOR-6437: EI (1.0)
|   |   |   |   |   |   Instance_name = HUMP45C17-DONOR-7438: EI (0.0)
|   |   |   |   |   |   Instance_name = HUMPCNA-DONOR-1618: EI (1.0)
|   |   |   |   |   |   Instance_name = HUMPCNA-DONOR-2424: EI (0.0)
|   |   |   |   |   |   Instance_name = HUMPCNA-DONOR-2588: EI (0.0)
|   |   |   |   |   |   Instance_name = HUMPCNA-DONOR-3721: EI (0.0)
|   |   |   |   |   |   Instance_name = HUMPCNA-DONOR-5730: EI (0.0)
|   |   |   |   |   |   Instance_name = HUMPGAMMG-DONOR-1347: EI (0.0)
|   |   |   |   |   |   Instance_name = HUMPGAMMG-DONOR-1631: EI (0.0)
|   |   |   |   |   |   Instance_name = HUMPIM1A-DONOR-1222: EI (0.0)
|   |   |   |   |   |   Instance_name = HUMPIM1A-DONOR-1442: EI (0.0)
|   |   |   |   |   |   Instance_name = HUMPIM1A-DONOR-1594: EI (0.0)
|   |   |   |   |   |   Instance_name = HUMPIM1A-DONOR-2054: EI (0.0)
|   |   |   |   |   |   Instance_name = HUMPIM1A-DONOR-3735: EI (0.0)
|   |   |   |   |   |   Instance_name = HUMPLAPL-DONOR-373: EI (0.0)
|   |   |   |   |   |   Instance_name = HUMPLAPL-DONOR-569: EI (0.0)
|   |   |   |   |   |   Instance_name = HUMPLAPL-DONOR-797: EI (0.0)
|   |   |   |   |   |   Instance_name = HUMPLPSPC-DONOR-628: EI (0.0)
|   |   |   |   |   |   Instance_name = HUMPLPSPC-DONOR-1485: EI (0.0)
|   |   |   |   |   |   Instance_name = HUMPLPSPC-DONOR-1953: EI (1.0)
|   |   |   |   |   |   Instance_name = HUMPLPSPC-DONOR-2287: EI (1.0)
|   |   |   |   |   |   Instance_name = HUMPNMTA-DONOR-2130: EI (0.0)
|   |   |   |   |   |   Instance_name = HUMPNMTA-DONOR-3337: EI (0.0)
|   |   |   |   |   |   Instance_name = HUMPOMC-DONOR-737: EI (1.0)
|   |   |   |   |   |   Instance_name = HUMPOMC-DONOR-4597: EI (0.0)
|   |   |   |   |   |   Instance_name = HUMPPPA-DONOR-965: EI (0.0)
|   |   |   |   |   |   Instance_name = HUMPPPA-DONOR-1912: EI (0.0)
|   |   |   |   |   |   Instance_name = HUMPPPA-DONOR-2234: EI (1.0)
|   |   |   |   |   |   Instance_name = HUMPRCA-DONOR-2171: EI (0.0)
|   |   |   |   |   |   Instance_name = HUMPRCA-DONOR-3601: EI (0.0)
|   |   |   |   |   |   Instance_name = HUMPRCA-DONOR-5088: EI (0.0)
|   |   |   |   |   |   Instance_name = HUMPRCA-DONOR-5318: EI (0.0)
|   |   |   |   |   |   Instance_name = HUMPRCA-DONOR-5555: EI (1.0)
|   |   |   |   |   |   Instance_name = HUMPRCA-DONOR-8366: EI (1.0)
|   |   |   |   |   |   Instance_name = HUMPRCA-DONOR-9357: EI (0.0)
|   |   |   |   |   |   Instance_name = HUMPRF1A-DONOR-1477: EI (1.0)
|   |   |   |   |   |   Instance_name = HUMPRF1A-DONOR-3783: EI (1.0)
|   |   |   |   |   |   Instance_name = HUMPRPH1-DONOR-1687: EI (0.0)
|   |   |   |   |   |   Instance_name = HUMPRPH1-DONOR-2774: EI (0.0)
|   |   |   |   |   |   Instance_name = HUMPRPH1-DONOR-3555: EI (1.0)
|   |   |   |   |   |   Instance_name = HUMPRPH2-DONOR-917: EI (0.0)
|   |   |   |   |   |   Instance_name = HUMPRPH2-DONOR-1884: EI (0.0)
|   |   |   |   |   |   Instance_name = HUMPRPH2-DONOR-2660: EI (1.0)
|   |   |   |   |   |   Instance_name = HUMPRT1A-DONOR-118: EI (0.0)
|   |   |   |   |   |   Instance_name = HUMPSAA-DONOR-691: EI (0.0)
|   |   |   |   |   |   Instance_name = HUMPSAA-DONOR-2089: EI (0.0)
|   |   |   |   |   |   Instance_name = HUMPSAA-DONOR-4013: EI (0.0)
|   |   |   |   |   |   Instance_name = HUMPSAA-DONOR-4293: EI (0.0)
|   |   |   |   |   |   Instance_name = HUMPSAP-DONOR-170: EI (0.0)
|   |   |   |   |   |   Instance_name = HUMPSAP-DONOR-1188: EI (0.0)
|   |   |   |   |   |   Instance_name = HUMPSAP-DONOR-1621: EI (1.0)
|   |   |   |   |   |   Instance_name = HUMPSAP-DONOR-2452: EI (0.0)
|   |   |   |   |   |   Instance_name = HUMRASH-DONOR-1745: EI (0.0)
|   |   |   |   |   |   Instance_name = HUMRASH-DONOR-2191: EI (0.0)
|   |   |   |   |   |   Instance_name = HUMRASH-DONOR-2504: EI (1.0)
|   |   |   |   |   |   Instance_name = HUMRPS14-DONOR-225: EI (1.0)
|   |   |   |   |   |   Instance_name = HUMRPS14-DONOR-2259: EI (0.0)
|   |   |   |   |   |   Instance_name = HUMRPS14-DONOR-3034: EI (0.0)
|   |   |   |   |   |   Instance_name = HUMRPS14-DONOR-4214: EI (0.0)
|   |   |   |   |   |   Instance_name = HUMRPS17A-DONOR-171: EI (0.0)
|   |   |   |   |   |   Instance_name = HUMRPS17A-DONOR-615: EI (0.0)
|   |   |   |   |   |   Instance_name = HUMRPS17A-DONOR-1717: EI (0.0)
|   |   |   |   |   |   Instance_name = HUMRPS17A-DONOR-2291: EI (0.0)
|   |   |   |   |   |   Instance_name = HUMSAA-DONOR-34: EI (1.0)
|   |   |   |   |   |   Instance_name = HUMSAA-DONOR-701: EI (0.0)
|   |   |   |   |   |   Instance_name = HUMSAA-DONOR-2706: EI (0.0)
|   |   |   |   |   |   Instance_name = HUMSAA1A-DONOR-1815: EI (1.0)
|   |   |   |   |   |   Instance_name = HUMSAA1A-DONOR-3240: EI (0.0)
|   |   |   |   |   |   Instance_name = HUMSAA1A-DONOR-6017: EI (0.0)
|   |   |   |   |   |   Instance_name = HUMSAACT-DONOR-769: EI (1.0)
|   |   |   |   |   |   Instance_name = HUMSAACT-DONOR-1779: EI (1.0)
|   |   |   |   |   |   Instance_name = HUMSAACT-DONOR-2210: EI (0.0)
|   |   |   |   |   |   Instance_name = HUMSAACT-DONOR-2499: EI (1.0)
|   |   |   |   |   |   Instance_name = HUMSAACT-DONOR-2770: EI (0.0)
|   |   |   |   |   |   Instance_name = HUMSAACT-DONOR-3038: EI (0.0)
|   |   |   |   |   |   Instance_name = HUMSHBGA-DONOR-2724: EI (0.0)
|   |   |   |   |   |   Instance_name = HUMSHBGA-DONOR-2948: EI (0.0)
|   |   |   |   |   |   Instance_name = HUMSHBGA-DONOR-3310: EI (1.0)
|   |   |   |   |   |   Instance_name = HUMSHBGA-DONOR-3802: EI (0.0)
|   |   |   |   |   |   Instance_name = HUMSHBGA-DONOR-4189: EI (0.0)
|   |   |   |   |   |   Instance_name = HUMSHBGA-DONOR-4456: EI (0.0)
|   |   |   |   |   |   Instance_name = HUMSHBGA-DONOR-5396: EI (1.0)
|   |   |   |   |   |   Instance_name = HUMSODA-DONOR-327: EI (0.0)
|   |   |   |   |   |   Instance_name = HUMSODA-DONOR-3286: EI (0.0)
|   |   |   |   |   |   Instance_name = HUMSODA-DONOR-3510: EI (0.0)
|   |   |   |   |   |   Instance_name = HUMSODA-DONOR-3967: EI (0.0)
|   |   |   |   |   |   Instance_name = HUMSODA-DONOR-4346: EI (0.0)
|   |   |   |   |   |   Instance_name = HUMSODA-DONOR-4739: EI (1.0)
|   |   |   |   |   |   Instance_name = HUMSODA-DONOR-4951: EI (0.0)
|   |   |   |   |   |   Instance_name = HUMSODA-DONOR-5211: EI (0.0)
|   |   |   |   |   |   Instance_name = HUMSODA-DONOR-6429: EI (0.0)
|   |   |   |   |   |   Instance_name = HUMSODA-DONOR-6624: EI (0.0)
|   |   |   |   |   |   Instance_name = HUMSODA-DONOR-6932: EI (0.0)
|   |   |   |   |   |   Instance_name = HUMSPRO-DONOR-1735: EI (0.0)
|   |   |   |   |   |   Instance_name = HUMSPRO-DONOR-1947: EI (0.0)
|   |   |   |   |   |   Instance_name = HUMSPRO-DONOR-2367: EI (0.0)
|   |   |   |   |   |   Instance_name = HUMSPRO-DONOR-2585: EI (0.0)
|   |   |   |   |   |   Instance_name = HUMSPRO-DONOR-2998: EI (0.0)
|   |   |   |   |   |   Instance_name = HUMSPRO-DONOR-3348: EI (0.0)
|   |   |   |   |   |   Instance_name = HUMSPRO-DONOR-4152: EI (0.0)
|   |   |   |   |   |   Instance_name = HUMTFPB-DONOR-992: EI (1.0)
|   |   |   |   |   |   Instance_name = HUMTFPB-DONOR-2272: EI (0.0)
|   |   |   |   |   |   Instance_name = HUMTFPB-DONOR-6562: EI (0.0)
|   |   |   |   |   |   Instance_name = HUMTFPB-DONOR-9438: EI (0.0)
|   |   |   |   |   |   Instance_name = HUMTFPB-DONOR-10205: EI (0.0)
|   |   |   |   |   |   Instance_name = HUMTHB-DONOR-497: EI (0.0)
|   |   |   |   |   |   Instance_name = HUMTHB-DONOR-1044: EI (0.0)
|   |   |   |   |   |   Instance_name = HUMTHB-DONOR-1728: EI (1.0)
|   |   |   |   |   |   Instance_name = HUMTHB-DONOR-2021: EI (0.0)
|   |   |   |   |   |   Instance_name = HUMTHB-DONOR-4453: EI (0.0)
|   |   |   |   |   |   Instance_name = HUMTHB-DONOR-4686: EI (0.0)
|   |   |   |   |   |   Instance_name = HUMTHB-DONOR-7339: EI (0.0)
|   |   |   |   |   |   Instance_name = HUMTHB-DONOR-7792: EI (1.0)
|   |   |   |   |   |   Instance_name = HUMTHB-DONOR-8003: EI (0.0)
|   |   |   |   |   |   Instance_name = HUMTHB-DONOR-9328: EI (0.0)
|   |   |   |   |   |   Instance_name = HUMTHB-DONOR-9999: EI (1.0)
|   |   |   |   |   |   Instance_name = HUMTHB-DONOR-10723: EI (0.0)
|   |   |   |   |   |   Instance_name = HUMTHB-DONOR-20241: EI (0.0)
|   |   |   |   |   |   Instance_name = HUMTHY1A-DONOR-34: EI (0.0)
|   |   |   |   |   |   Instance_name = HUMTHY1A-DONOR-853: EI (0.0)
|   |   |   |   |   |   Instance_name = HUMTKRA-DONOR-556: EI (1.0)
|   |   |   |   |   |   Instance_name = HUMTKRA-DONOR-698: EI (0.0)
|   |   |   |   |   |   Instance_name = HUMTKRA-DONOR-2441: EI (0.0)
|   |   |   |   |   |   Instance_name = HUMTKRA-DONOR-4909: EI (0.0)
|   |   |   |   |   |   Instance_name = HUMTKRA-DONOR-11961: EI (0.0)
|   |   |   |   |   |   Instance_name = HUMTKRA-DONOR-12438: EI (0.0)
|   |   |   |   |   |   Instance_name = HUMTNFA-DONOR-952: EI (0.0)
|   |   |   |   |   |   Instance_name = HUMTNFA-DONOR-1604: EI (0.0)
|   |   |   |   |   |   Instance_name = HUMTNFA-DONOR-1839: EI (0.0)
|   |   |   |   |   |   Instance_name = HUMTNFAB-DONOR-950: EI (0.0)
|   |   |   |   |   |   Instance_name = HUMTNFAB-DONOR-1345: EI (1.0)
|   |   |   |   |   |   Instance_name = HUMTNFAB-DONOR-1537: EI (0.0)
|   |   |   |   |   |   Instance_name = HUMTNFAB-DONOR-4431: EI (0.0)
|   |   |   |   |   |   Instance_name = HUMTNFAB-DONOR-5083: EI (0.0)
|   |   |   |   |   |   Instance_name = HUMTNFAB-DONOR-5318: EI (0.0)
|   |   |   |   |   |   Instance_name = HUMTNFX-DONOR-726: EI (0.0)
|   |   |   |   |   |   Instance_name = HUMTNFX-DONOR-1378: EI (0.0)
|   |   |   |   |   |   Instance_name = HUMTNFX-DONOR-1613: EI (0.0)
|   |   |   |   |   |   Instance_name = HUMTPA-DONOR-3683: EI (0.0)
|   |   |   |   |   |   Instance_name = HUMTPA-DONOR-18038: EI (1.0)
|   |   |   |   |   |   Instance_name = HUMTPA-DONOR-19780: EI (0.0)
|   |   |   |   |   |   Instance_name = HUMTPA-DONOR-22213: EI (0.0)
|   |   |   |   |   |   Instance_name = HUMTPA-DONOR-23241: EI (0.0)
|   |   |   |   |   |   Instance_name = HUMTPA-DONOR-23748: EI (1.0)
|   |   |   |   |   |   Instance_name = HUMTPA-DONOR-26070: EI (0.0)
|   |   |   |   |   |   Instance_name = HUMTPA-DONOR-28433: EI (0.0)
|   |   |   |   |   |   Instance_name = HUMTPA-DONOR-29526: EI (0.0)
|   |   |   |   |   |   Instance_name = HUMTPA-DONOR-30972: EI (0.0)
|   |   |   |   |   |   Instance_name = HUMTPA-DONOR-31220: EI (0.0)
|   |   |   |   |   |   Instance_name = HUMTPA-DONOR-31536: EI (0.0)
|   |   |   |   |   |   Instance_name = HUMTPA-DONOR-32565: EI (0.0)
|   |   |   |   |   |   Instance_name = HUMTUBAG-DONOR-506: EI (0.0)
|   |   |   |   |   |   Instance_name = HUMTUBAG-DONOR-2257: EI (0.0)
|   |   |   |   |   |   Instance_name = HUMTUBAG-DONOR-2554: EI (0.0)
|   |   |   |   |   |   Instance_name = HUMTUBBM-DONOR-775: EI (0.0)
|   |   |   |   |   |   Instance_name = HUMTUBBM-DONOR-1187: EI (0.0)
|   |   |   |   |   |   Instance_name = HUMTUBBM-DONOR-1376: EI (0.0)
|   |   |   |   |   |   Instance_name = HUMUBILP-DONOR-603: EI (1.0)
|   |   |   |   |   |   Instance_name = HUMUBILP-DONOR-912: EI (0.0)
|   |   |   |   |   |   Instance_name = HUMUBILP-DONOR-1367: EI (0.0)
|   |   |   |   |   |   Instance_name = HUMVPNP-DONOR-315: EI (0.0)
|   |   |   |   |   |   Instance_name = HUMVPNP-DONOR-1890: EI (0.0)
|   |   |   |   |   |   Instance_name = LEMHBB-DONOR-216: EI (1.0)
|   |   |   |   |   |   Instance_name = LEMHBB-DONOR-569: EI (0.0)
|   |   |   |   |   |   Instance_name = LEMHBE-DONOR-288: EI (0.0)
|   |   |   |   |   |   Instance_name = LEMHBE-DONOR-633: EI (0.0)
|   |   |   |   |   |   Instance_name = LEMHBG-DONOR-241: EI (0.0)
|   |   |   |   |   |   Instance_name = LEMHBG-DONOR-587: EI (0.0)
|   |   |   |   |   |   Instance_name = LEMHBGA-DONOR-302: EI (0.0)
|   |   |   |   |   |   Instance_name = LEMHBGA-DONOR-648: EI (0.0)
|   |   |   |   |   |   Instance_name = MACHBA-DONOR-121: EI (0.0)
|   |   |   |   |   |   Instance_name = MACHBA-DONOR-443: EI (0.0)
|   |   |   |   |   |   Instance_name = MACHBCA2-DONOR-463: EI (0.0)
|   |   |   |   |   |   Instance_name = MACHBCA2-DONOR-809: EI (0.0)
|   |   |   |   |   |   Instance_name = MACHBGA1-DONOR-465: EI (0.0)
|   |   |   |   |   |   Instance_name = MACHBGA1-DONOR-811: EI (0.0)
|   |   |   |   |   |   Instance_name = MNKHBD-DONOR-347: EI (1.0)
|   |   |   |   |   |   Instance_name = MNKHBD-DONOR-698: EI (0.0)
|   |   |   |   |   |   Instance_name = ORAHBD-DONOR-466: EI (1.0)
|   |   |   |   |   |   Instance_name = ORAHBD-DONOR-819: EI (0.0)
|   |   |   |   |   |   Instance_name = ORAHBG1F-DONOR-269: EI (0.0)
|   |   |   |   |   |   Instance_name = ORAHBG1F-DONOR-614: EI (0.0)
|   |   |   |   |   |   Instance_name = ORAHBG2F-DONOR-269: EI (0.0)
|   |   |   |   |   |   Instance_name = ORAHBG2F-DONOR-615: EI (0.0)
|   |   |   |   |   |   Instance_name = ORAIGECA-DONOR-378: EI (0.0)
|   |   |   |   |   |   Instance_name = ORAIGECA-DONOR-904: EI (1.0)
|   |   |   |   |   |   Instance_name = ORAIGECA-DONOR-1314: EI (0.0)
|   |   |   |   |   |   Instance_name = TARHBB-DONOR-1560: EI (1.0)
|   |   |   |   |   |   Instance_name = TARHBB-DONOR-1909: EI (0.0)
|   |   |   |   |   |   Instance_name = TARHBD-DONOR-468: EI (1.0)
|   |   |   |   |   |   Instance_name = TARHBD-DONOR-817: EI (0.0)
|   |   |   |   |   |   Instance_name = ATRINS-ACCEPTOR-701: EI (0.0)
|   |   |   |   |   |   Instance_name = ATRINS-ACCEPTOR-1678: EI (0.0)
|   |   |   |   |   |   Instance_name = BABAPOE-ACCEPTOR-801: EI (0.0)
|   |   |   |   |   |   Instance_name = BABAPOE-ACCEPTOR-2624: EI (0.0)
|   |   |   |   |   |   Instance_name = BABAPOE-ACCEPTOR-3437: EI (0.0)
|   |   |   |   |   |   Instance_name = CHPIGECA-ACCEPTOR-585: EI (0.0)
|   |   |   |   |   |   Instance_name = CHPIGECA-ACCEPTOR-989: EI (0.0)
|   |   |   |   |   |   Instance_name = CHPIGECA-ACCEPTOR-1392: EI (0.0)
|   |   |   |   |   |   Instance_name = GCRHBBA1-ACCEPTOR-1385: EI (0.0)
|   |   |   |   |   |   Instance_name = GCRHBBA1-ACCEPTOR-1706: EI (0.0)
|   |   |   |   |   |   Instance_name = GCRHBBA6-ACCEPTOR-590: EI (0.0)
|   |   |   |   |   |   Instance_name = GCRHBBA6-ACCEPTOR-920: EI (0.0)
|   |   |   |   |   |   Instance_name = GIBHBGGL-ACCEPTOR-2401: EI (0.0)
|   |   |   |   |   |   Instance_name = GIBHBGGL-ACCEPTOR-3506: EI (0.0)
|   |   |   |   |   |   Instance_name = GIBHBGGL-ACCEPTOR-7321: EI (0.0)
|   |   |   |   |   |   Instance_name = GIBHBGGL-ACCEPTOR-8438: EI (0.0)
|   |   |   |   |   |   Instance_name = HUMA1ATP-ACCEPTOR-7282: EI (0.0)
|   |   |   |   |   |   Instance_name = HUMA1ATP-ACCEPTOR-9382: EI (0.0)
|   |   |   |   |   |   Instance_name = HUMA1ATP-ACCEPTOR-10909: IE (1.0)
|   |   |   |   |   |   Instance_name = HUMA1ATP-ACCEPTOR-11880: EI (0.0)
|   |   |   |   |   |   Instance_name = HUMA1GLY2-ACCEPTOR-2108: EI (0.0)
|   |   |   |   |   |   Instance_name = HUMA1GLY2-ACCEPTOR-2469: EI (0.0)
|   |   |   |   |   |   Instance_name = HUMA1GLY2-ACCEPTOR-3244: EI (0.0)
|   |   |   |   |   |   Instance_name = HUMA1GLY2-ACCEPTOR-3502: EI (0.0)
|   |   |   |   |   |   Instance_name = HUMA1GLY2-ACCEPTOR-4746: EI (0.0)
|   |   |   |   |   |   Instance_name = HUMACCYBA-ACCEPTOR-1121: EI (0.0)
|   |   |   |   |   |   Instance_name = HUMACCYBA-ACCEPTOR-1384: EI (0.0)
|   |   |   |   |   |   Instance_name = HUMACCYBA-ACCEPTOR-2065: EI (0.0)
|   |   |   |   |   |   Instance_name = HUMACCYBA-ACCEPTOR-2599: EI (0.0)
|   |   |   |   |   |   Instance_name = HUMACCYBA-ACCEPTOR-2893: EI (0.0)
|   |   |   |   |   |   Instance_name = HUMACCYBB-ACCEPTOR-1057: EI (0.0)
|   |   |   |   |   |   Instance_name = HUMACCYBB-ACCEPTOR-1318: EI (0.0)
|   |   |   |   |   |   Instance_name = HUMACCYBB-ACCEPTOR-1999: EI (0.0)
|   |   |   |   |   |   Instance_name = HUMACCYBB-ACCEPTOR-2533: EI (0.0)
|   |   |   |   |   |   Instance_name = HUMACCYBB-ACCEPTOR-2827: EI (0.0)
|   |   |   |   |   |   Instance_name = HUMACTGA-ACCEPTOR-886: EI (0.0)
|   |   |   |   |   |   Instance_name = HUMACTGA-ACCEPTOR-1104: EI (0.0)
|   |   |   |   |   |   Instance_name = HUMACTGA-ACCEPTOR-1621: EI (0.0)
|   |   |   |   |   |   Instance_name = HUMACTGA-ACCEPTOR-2139: EI (0.0)
|   |   |   |   |   |   Instance_name = HUMACTGA-ACCEPTOR-2414: EI (0.0)
|   |   |   |   |   |   Instance_name = HUMADAG-ACCEPTOR-19200: EI (0.0)
|   |   |   |   |   |   Instance_name = HUMADAG-ACCEPTOR-26314: EI (0.0)
|   |   |   |   |   |   Instance_name = HUMADAG-ACCEPTOR-28878: EI (0.0)
|   |   |   |   |   |   Instance_name = HUMADAG-ACCEPTOR-29793: EI (0.0)
|   |   |   |   |   |   Instance_name = HUMADAG-ACCEPTOR-31146: EI (0.0)
|   |   |   |   |   |   Instance_name = HUMADAG-ACCEPTOR-32395: EI (0.0)
|   |   |   |   |   |   Instance_name = HUMADAG-ACCEPTOR-32543: EI (0.0)
|   |   |   |   |   |   Instance_name = HUMADAG-ACCEPTOR-32821: EI (0.0)
|   |   |   |   |   |   Instance_name = HUMADAG-ACCEPTOR-34324: EI (0.0)
|   |   |   |   |   |   Instance_name = HUMADAG-ACCEPTOR-35070: EI (0.0)
|   |   |   |   |   |   Instance_name = HUMADAG-ACCEPTOR-35621: EI (0.0)
|   |   |   |   |   |   Instance_name = HUMADAM2-ACCEPTOR-784: EI (0.0)
|   |   |   |   |   |   Instance_name = HUMAFP-ACCEPTOR-1782: EI (0.0)
|   |   |   |   |   |   Instance_name = HUMAFP-ACCEPTOR-2796: EI (0.0)
|   |   |   |   |   |   Instance_name = HUMAFP-ACCEPTOR-5216: EI (0.0)
|   |   |   |   |   |   Instance_name = HUMAFP-ACCEPTOR-6914: EI (0.0)
|   |   |   |   |   |   Instance_name = HUMAFP-ACCEPTOR-7965: EI (0.0)
|   |   |   |   |   |   Instance_name = HUMAFP-ACCEPTOR-9611: EI (0.0)
|   |   |   |   |   |   Instance_name = HUMAFP-ACCEPTOR-12016: EI (0.0)
|   |   |   |   |   |   Instance_name = HUMAFP-ACCEPTOR-13888: EI (0.0)
|   |   |   |   |   |   Instance_name = HUMAFP-ACCEPTOR-14589: EI (0.0)
|   |   |   |   |   |   Instance_name = HUMAFP-ACCEPTOR-15169: EI (0.0)
|   |   |   |   |   |   Instance_name = HUMAFP-ACCEPTOR-16955: EI (0.0)
|   |   |   |   |   |   Instance_name = HUMAFP-ACCEPTOR-18319: EI (0.0)
|   |   |   |   |   |   Instance_name = HUMAFP-ACCEPTOR-19790: EI (0.0)
|   |   |   |   |   |   Instance_name = HUMAFP-ACCEPTOR-20185: EI (0.0)
|   |   |   |   |   |   Instance_name = HUMAK1-ACCEPTOR-3918: EI (0.0)
|   |   |   |   |   |   Instance_name = HUMAK1-ACCEPTOR-5504: EI (0.0)
|   |   |   |   |   |   Instance_name = HUMAK1-ACCEPTOR-5712: IE (1.0)
|   |   |   |   |   |   Instance_name = HUMAK1-ACCEPTOR-6626: EI (0.0)
|   |   |   |   |   |   Instance_name = HUMAK1-ACCEPTOR-10045: EI (0.0)
|   |   |   |   |   |   Instance_name = HUMAK1-ACCEPTOR-10488: EI (0.0)
|   |   |   |   |   |   Instance_name = HUMALBGC-ACCEPTOR-2534: EI (0.0)
|   |   |   |   |   |   Instance_name = HUMALBGC-ACCEPTOR-4046: EI (0.0)
|   |   |   |   |   |   Instance_name = HUMALBGC-ACCEPTOR-6011: EI (0.0)
|   |   |   |   |   |   Instance_name = HUMALBGC-ACCEPTOR-6772: EI (0.0)
|   |   |   |   |   |   Instance_name = HUMALBGC-ACCEPTOR-7729: EI (0.0)
|   |   |   |   |   |   Instance_name = HUMALBGC-ACCEPTOR-9414: EI (0.0)
|   |   |   |   |   |   Instance_name = HUMALBGC-ACCEPTOR-10837: EI (0.0)
|   |   |   |   |   |   Instance_name = HUMALBGC-ACCEPTOR-12451: EI (0.0)
|   |   |   |   |   |   Instance_name = HUMALBGC-ACCEPTOR-13672: EI (0.0)
|   |   |   |   |   |   Instance_name = HUMALBGC-ACCEPTOR-14947: EI (0.0)
|   |   |   |   |   |   Instance_name = HUMALBGC-ACCEPTOR-15504: EI (0.0)
|   |   |   |   |   |   Instance_name = HUMALBGC-ACCEPTOR-16911: EI (0.0)
|   |   |   |   |   |   Instance_name = HUMALBGC-ACCEPTOR-17658: EI (0.0)
|   |   |   |   |   |   Instance_name = HUMALBGC-ACCEPTOR-18496: EI (0.0)
|   |   |   |   |   |   Instance_name = HUMALPHA-ACCEPTOR-581: EI (0.0)
|   |   |   |   |   |   Instance_name = HUMALPHA-ACCEPTOR-809: EI (0.0)
|   |   |   |   |   |   Instance_name = HUMALPHA-ACCEPTOR-1117: EI (0.0)
|   |   |   |   |   |   Instance_name = HUMALPHA-ACCEPTOR-1369: EI (0.0)
|   |   |   |   |   |   Instance_name = HUMALPHA-ACCEPTOR-1789: EI (0.0)
|   |   |   |   |   |   Instance_name = HUMALPHA-ACCEPTOR-2023: EI (0.0)
|   |   |   |   |   |   Instance_name = HUMALPHA-ACCEPTOR-2224: EI (0.0)
|   |   |   |   |   |   Instance_name = HUMALPHA-ACCEPTOR-2440: EI (0.0)
|   |   |   |   |   |   Instance_name = HUMALPHA-ACCEPTOR-2851: EI (0.0)
|   |   |   |   |   |   Instance_name = HUMALPHA-ACCEPTOR-3090: EI (0.0)
|   |   |   |   |   |   Instance_name = HUMALPI-ACCEPTOR-415: EI (0.0)
|   |   |   |   |   |   Instance_name = HUMALPI-ACCEPTOR-646: EI (0.0)
|   |   |   |   |   |   Instance_name = HUMALPI-ACCEPTOR-965: EI (0.0)
|   |   |   |   |   |   Instance_name = HUMALPI-ACCEPTOR-1216: EI (0.0)
|   |   |   |   |   |   Instance_name = HUMALPI-ACCEPTOR-1631: EI (0.0)
|   |   |   |   |   |   Instance_name = HUMALPI-ACCEPTOR-1861: EI (0.0)
|   |   |   |   |   |   Instance_name = HUMALPI-ACCEPTOR-2064: EI (0.0)
|   |   |   |   |   |   Instance_name = HUMALPI-ACCEPTOR-2283: EI (0.0)
|   |   |   |   |   |   Instance_name = HUMALPI-ACCEPTOR-2698: EI (0.0)
|   |   |   |   |   |   Instance_name = HUMALPI-ACCEPTOR-2926: EI (0.0)
|   |   |   |   |   |   Instance_name = HUMALPI1-ACCEPTOR-124: EI (0.0)
|   |   |   |   |   |   Instance_name = HUMALPPD-ACCEPTOR-192: EI (0.0)
|   |   |   |   |   |   Instance_name = HUMALPPD-ACCEPTOR-421: EI (0.0)
|   |   |   |   |   |   Instance_name = HUMALPPD-ACCEPTOR-734: EI (0.0)
|   |   |   |   |   |   Instance_name = HUMALPPD-ACCEPTOR-985: EI (0.0)
|   |   |   |   |   |   Instance_name = HUMALPPD-ACCEPTOR-1408: EI (0.0)
|   |   |   |   |   |   Instance_name = HUMALPPD-ACCEPTOR-1642: EI (0.0)
|   |   |   |   |   |   Instance_name = HUMALPPD-ACCEPTOR-1845: EI (0.0)
|   |   |   |   |   |   Instance_name = HUMALPPD-ACCEPTOR-2062: EI (0.0)
|   |   |   |   |   |   Instance_name = HUMALPPD-ACCEPTOR-2473: EI (0.0)
|   |   |   |   |   |   Instance_name = HUMALPPD-ACCEPTOR-2719: EI (0.0)
|   |   |   |   |   |   Instance_name = HUMANFA-ACCEPTOR-785: EI (0.0)
|   |   |   |   |   |   Instance_name = HUMANFA-ACCEPTOR-2205: EI (0.0)
|   |   |   |   |   |   Instance_name = HUMANT1-ACCEPTOR-2955: EI (0.0)
|   |   |   |   |   |   Instance_name = HUMANT1-ACCEPTOR-3950: EI (0.0)
|   |   |   |   |   |   Instance_name = HUMANT1-ACCEPTOR-5005: EI (0.0)
|   |   |   |   |   |   Instance_name = HUMAPOA4A-ACCEPTOR-1382: EI (0.0)
|   |   |   |   |   |   Instance_name = HUMAPOA4A-ACCEPTOR-2286: EI (0.0)
|   |   |   |   |   |   Instance_name = HUMAPOAI1-ACCEPTOR-653: EI (0.0)
|   |   |   |   |   |   Instance_name = HUMAPOAI1-ACCEPTOR-902: EI (0.0)
|   |   |   |   |   |   Instance_name = HUMAPOAI1-ACCEPTOR-1647: EI (0.0)
|   |   |   |   |   |   Instance_name = HUMAPOAIT-ACCEPTOR-398: EI (0.0)
|   |   |   |   |   |   Instance_name = HUMAPOAIT-ACCEPTOR-648: EI (0.0)
|   |   |   |   |   |   Instance_name = HUMAPOAIT-ACCEPTOR-1394: EI (0.0)
|   |   |   |   |   |   Instance_name = HUMAPOC2-ACCEPTOR-2908: EI (0.0)
|   |   |   |   |   |   Instance_name = HUMAPOC2-ACCEPTOR-3143: EI (0.0)
|   |   |   |   |   |   Instance_name = HUMAPOC2-ACCEPTOR-3599: EI (0.0)
|   |   |   |   |   |   Instance_name = HUMAPOC2G-ACCEPTOR-2616: EI (0.0)
|   |   |   |   |   |   Instance_name = HUMAPOC2G-ACCEPTOR-2851: EI (0.0)
|   |   |   |   |   |   Instance_name = HUMAPOC2G-ACCEPTOR-3309: EI (0.0)
|   |   |   |   |   |   Instance_name = HUMAPOCIA-ACCEPTOR-634: EI (0.0)
|   |   |   |   |   |   Instance_name = HUMAPOCIA-ACCEPTOR-1956: EI (0.0)
|   |   |   |   |   |   Instance_name = HUMAPOCIA-ACCEPTOR-4946: EI (0.0)
|   |   |   |   |   |   Instance_name = HUMAPOCII-ACCEPTOR-2897: EI (0.0)
|   |   |   |   |   |   Instance_name = HUMAPOCII-ACCEPTOR-3131: EI (0.0)
|   |   |   |   |   |   Instance_name = HUMAPOCII-ACCEPTOR-3595: EI (0.0)
|   |   |   |   |   |   Instance_name = HUMAPOE4-ACCEPTOR-1818: EI (0.0)
|   |   |   |   |   |   Instance_name = HUMAPOE4-ACCEPTOR-2977: EI (0.0)
|   |   |   |   |   |   Instance_name = HUMAPOE4-ACCEPTOR-3751: EI (0.0)
|   |   |   |   |   |   Instance_name = HUMAPRTA-ACCEPTOR-774: EI (0.0)
|   |   |   |   |   |   Instance_name = HUMAPRTA-ACCEPTOR-1848: EI (0.0)
|   |   |   |   |   |   Instance_name = HUMAPRTA-ACCEPTOR-2252: EI (0.0)
|   |   |   |   |   |   Instance_name = HUMAPRTA-ACCEPTOR-2558: EI (0.0)
|   |   |   |   |   |   Instance_name = HUMATP1A2-ACCEPTOR-6683: EI (0.0)
|   |   |   |   |   |   Instance_name = HUMATP1A2-ACCEPTOR-6969: EI (0.0)
|   |   |   |   |   |   Instance_name = HUMATP1A2-ACCEPTOR-8990: EI (0.0)
|   |   |   |   |   |   Instance_name = HUMATP1A2-ACCEPTOR-9720: EI (0.0)
|   |   |   |   |   |   Instance_name = HUMATP1A2-ACCEPTOR-10073: EI (0.0)
|   |   |   |   |   |   Instance_name = HUMATP1A2-ACCEPTOR-10913: EI (0.0)
|   |   |   |   |   |   Instance_name = HUMATP1A2-ACCEPTOR-12450: EI (0.0)
|   |   |   |   |   |   Instance_name = HUMATP1A2-ACCEPTOR-13550: IE (1.0)
|   |   |   |   |   |   Instance_name = HUMATP1A2-ACCEPTOR-13878: EI (0.0)
|   |   |   |   |   |   Instance_name = HUMATP1A2-ACCEPTOR-15000: EI (0.0)
|   |   |   |   |   |   Instance_name = HUMATP1A2-ACCEPTOR-15320: EI (0.0)
|   |   |   |   |   |   Instance_name = HUMATP1A2-ACCEPTOR-19381: EI (0.0)
|   |   |   |   |   |   Instance_name = HUMATP1A2-ACCEPTOR-20042: EI (0.0)
|   |   |   |   |   |   Instance_name = HUMATP1A2-ACCEPTOR-20331: EI (0.0)
|   |   |   |   |   |   Instance_name = HUMATP1A2-ACCEPTOR-20736: EI (0.0)
|   |   |   |   |   |   Instance_name = HUMATP1A2-ACCEPTOR-21144: EI (0.0)
|   |   |   |   |   |   Instance_name = HUMATP1A2-ACCEPTOR-21467: EI (0.0)
|   |   |   |   |   |   Instance_name = HUMATP1A2-ACCEPTOR-21798: EI (0.0)
|   |   |   |   |   |   Instance_name = HUMATP1A2-ACCEPTOR-22617: EI (0.0)
|   |   |   |   |   |   Instance_name = HUMATP1A2-ACCEPTOR-22870: EI (0.0)
|   |   |   |   |   |   Instance_name = HUMATP1A2-ACCEPTOR-24266: EI (0.0)
|   |   |   |   |   |   Instance_name = HUMATPSYB-ACCEPTOR-2698: EI (0.0)
|   |   |   |   |   |   Instance_name = HUMATPSYB-ACCEPTOR-3096: IE (1.0)
|   |   |   |   |   |   Instance_name = HUMATPSYB-ACCEPTOR-4093: EI (0.0)
|   |   |   |   |   |   Instance_name = HUMATPSYB-ACCEPTOR-4464: EI (0.0)
|   |   |   |   |   |   Instance_name = HUMATPSYB-ACCEPTOR-5220: EI (0.0)
|   |   |   |   |   |   Instance_name = HUMATPSYB-ACCEPTOR-5471: EI (0.0)
|   |   |   |   |   |   Instance_name = HUMATPSYB-ACCEPTOR-7858: EI (0.0)
|   |   |   |   |   |   Instance_name = HUMATPSYB-ACCEPTOR-8745: EI (0.0)
|   |   |   |   |   |   Instance_name = HUMATPSYB-ACCEPTOR-9633: EI (0.0)
|   |   |   |   |   |   Instance_name = HUMBLYM1-ACCEPTOR-505: EI (0.0)
|   |   |   |   |   |   Instance_name = HUMBNPA-ACCEPTOR-831: EI (0.0)
|   |   |   |   |   |   Instance_name = HUMBNPA-ACCEPTOR-1629: EI (0.0)
|   |   |   |   |   |   Instance_name = HUMCACY-ACCEPTOR-1973: EI (0.0)
|   |   |   |   |   |   Instance_name = HUMCACY-ACCEPTOR-2504: EI (0.0)
|   |   |   |   |   |   Instance_name = HUMCAPG-ACCEPTOR-1131: EI (0.0)
|   |   |   |   |   |   Instance_name = HUMCAPG-ACCEPTOR-1733: EI (0.0)
|   |   |   |   |   |   Instance_name = HUMCAPG-ACCEPTOR-2044: EI (0.0)
|   |   |   |   |   |   Instance_name = HUMCAPG-ACCEPTOR-2733: EI (0.0)
|   |   |   |   |   |   Instance_name = HUMCATF-ACCEPTOR-1108: IE (1.0)
|   |   |   |   |   |   Instance_name = HUMCFVII-ACCEPTOR-1624: EI (0.0)
|   |   |   |   |   |   Instance_name = HUMCFVII-ACCEPTOR-4264: EI (0.0)
|   |   |   |   |   |   Instance_name = HUMCFVII-ACCEPTOR-6353: EI (0.0)
|   |   |   |   |   |   Instance_name = HUMCFVII-ACCEPTOR-6448: EI (0.0)
|   |   |   |   |   |   Instance_name = HUMCFVII-ACCEPTOR-8277: EI (0.0)
|   |   |   |   |   |   Instance_name = HUMCFVII-ACCEPTOR-9389: EI (0.0)
|   |   |   |   |   |   Instance_name = HUMCFVII-ACCEPTOR-10094: EI (0.0)
|   |   |   |   |   |   Instance_name = HUMCFVII-ACCEPTOR-11034: EI (0.0)
|   |   |   |   |   |   Instance_name = HUMCKMT-ACCEPTOR-1127: EI (0.0)
|   |   |   |   |   |   Instance_name = HUMCKMT-ACCEPTOR-1529: EI (0.0)
|   |   |   |   |   |   Instance_name = HUMCKMT-ACCEPTOR-2011: EI (0.0)
|   |   |   |   |   |   Instance_name = HUMCKMT-ACCEPTOR-2362: EI (0.0)
|   |   |   |   |   |   Instance_name = HUMCKMT-ACCEPTOR-2563: EI (0.0)
|   |   |   |   |   |   Instance_name = HUMCKMT-ACCEPTOR-4348: EI (0.0)
|   |   |   |   |   |   Instance_name = HUMCKMT-ACCEPTOR-4984: EI (0.0)
|   |   |   |   |   |   Instance_name = HUMCKMT-ACCEPTOR-5313: EI (0.0)
|   |   |   |   |   |   Instance_name = HUMCP21OH-ACCEPTOR-1014: EI (0.0)
|   |   |   |   |   |   Instance_name = HUMCP21OH-ACCEPTOR-1386: EI (0.0)
|   |   |   |   |   |   Instance_name = HUMCP21OH-ACCEPTOR-1648: EI (0.0)
|   |   |   |   |   |   Instance_name = HUMCP21OH-ACCEPTOR-1838: EI (0.0)
|   |   |   |   |   |   Instance_name = HUMCP21OH-ACCEPTOR-2041: EI (0.0)
|   |   |   |   |   |   Instance_name = HUMCP21OH-ACCEPTOR-2297: EI (0.0)
|   |   |   |   |   |   Instance_name = HUMCP21OH-ACCEPTOR-2698: EI (0.0)
|   |   |   |   |   |   Instance_name = HUMCP21OH-ACCEPTOR-2960: EI (0.0)
|   |   |   |   |   |   Instance_name = HUMCP21OH-ACCEPTOR-3161: EI (0.0)
|   |   |   |   |   |   Instance_name = HUMCP21OHC-ACCEPTOR-1015: EI (0.0)
|   |   |   |   |   |   Instance_name = HUMCP21OHC-ACCEPTOR-1387: EI (0.0)
|   |   |   |   |   |   Instance_name = HUMCP21OHC-ACCEPTOR-1649: EI (0.0)
|   |   |   |   |   |   Instance_name = HUMCP21OHC-ACCEPTOR-1839: EI (0.0)
|   |   |   |   |   |   Instance_name = HUMCP21OHC-ACCEPTOR-2042: EI (0.0)
|   |   |   |   |   |   Instance_name = HUMCP21OHC-ACCEPTOR-2298: EI (0.0)
|   |   |   |   |   |   Instance_name = HUMCP21OHC-ACCEPTOR-2699: EI (0.0)
|   |   |   |   |   |   Instance_name = HUMCP21OHC-ACCEPTOR-2962: EI (0.0)
|   |   |   |   |   |   Instance_name = HUMCP21OHC-ACCEPTOR-3163: EI (0.0)
|   |   |   |   |   |   Instance_name = HUMCRPG-ACCEPTOR-578: EI (0.0)
|   |   |   |   |   |   Instance_name = HUMCRPGA-ACCEPTOR-539: EI (0.0)
|   |   |   |   |   |   Instance_name = HUMCRYGBC-ACCEPTOR-2225: EI (0.0)
|   |   |   |   |   |   Instance_name = HUMCRYGBC-ACCEPTOR-5283: EI (0.0)
|   |   |   |   |   |   Instance_name = HUMCRYGBC-ACCEPTOR-18489: EI (0.0)
|   |   |   |   |   |   Instance_name = HUMCRYGBC-ACCEPTOR-19693: EI (0.0)
|   |   |   |   |   |   Instance_name = HUMCS1-ACCEPTOR-800: EI (0.0)
|   |   |   |   |   |   Instance_name = HUMCS1-ACCEPTOR-1184: EI (0.0)
|   |   |   |   |   |   Instance_name = HUMCS1-ACCEPTOR-1396: EI (0.0)
|   |   |   |   |   |   Instance_name = HUMCS1-ACCEPTOR-1814: EI (0.0)
|   |   |   |   |   |   Instance_name = HUMCSFGMA-ACCEPTOR-891: EI (0.0)
|   |   |   |   |   |   Instance_name = HUMCSFGMA-ACCEPTOR-1620: EI (0.0)
|   |   |   |   |   |   Instance_name = HUMCSFGMA-ACCEPTOR-2554: EI (0.0)
|   |   |   |   |   |   Instance_name = HUMCSPB-ACCEPTOR-1260: EI (0.0)
|   |   |   |   |   |   Instance_name = HUMCSPB-ACCEPTOR-1874: EI (0.0)
|   |   |   |   |   |   Instance_name = HUMCSPB-ACCEPTOR-2217: EI (0.0)
|   |   |   |   |   |   Instance_name = HUMCSPB-ACCEPTOR-3118: EI (0.0)
|   |   |   |   |   |   Instance_name = HUMCYC1A-ACCEPTOR-2108: EI (0.0)
|   |   |   |   |   |   Instance_name = HUMCYC1A-ACCEPTOR-2399: EI (0.0)
|   |   |   |   |   |   Instance_name = HUMCYC1A-ACCEPTOR-2611: EI (0.0)
|   |   |   |   |   |   Instance_name = HUMCYC1A-ACCEPTOR-2858: EI (0.0)
|   |   |   |   |   |   Instance_name = HUMCYC1A-ACCEPTOR-3281: EI (0.0)
|   |   |   |   |   |   Instance_name = HUMCYC1A-ACCEPTOR-3478: EI (0.0)
|   |   |   |   |   |   Instance_name = HUMCYCAA-ACCEPTOR-1188: EI (0.0)
|   |   |   |   |   |   Instance_name = HUMCYCAA-ACCEPTOR-1466: EI (0.0)
|   |   |   |   |   |   Instance_name = HUMCYPIIE-ACCEPTOR-3877: EI (0.0)
|   |   |   |   |   |   Instance_name = HUMCYPIIE-ACCEPTOR-6976: EI (0.0)
|   |   |   |   |   |   Instance_name = HUMCYPIIE-ACCEPTOR-7515: EI (0.0)
|   |   |   |   |   |   Instance_name = HUMCYPIIE-ACCEPTOR-8083: EI (0.0)
|   |   |   |   |   |   Instance_name = HUMCYPIIE-ACCEPTOR-9142: EI (0.0)
|   |   |   |   |   |   Instance_name = HUMCYPIIE-ACCEPTOR-12121: EI (0.0)
|   |   |   |   |   |   Instance_name = HUMCYPIIE-ACCEPTOR-12808: EI (0.0)
|   |   |   |   |   |   Instance_name = HUMCYPIIE-ACCEPTOR-13834: EI (0.0)
|   |   |   |   |   |   Instance_name = HUMDAFA-ACCEPTOR-1235: EI (0.0)
|   |   |   |   |   |   Instance_name = HUMDES-ACCEPTOR-1763: EI (0.0)
|   |   |   |   |   |   Instance_name = HUMDES-ACCEPTOR-1920: EI (0.0)
|   |   |   |   |   |   Instance_name = HUMDES-ACCEPTOR-2164: EI (0.0)
|   |   |   |   |   |   Instance_name = HUMDES-ACCEPTOR-2504: EI (0.0)
|   |   |   |   |   |   Instance_name = HUMDES-ACCEPTOR-3015: EI (0.0)
|   |   |   |   |   |   Instance_name = HUMDES-ACCEPTOR-5413: EI (0.0)
|   |   |   |   |   |   Instance_name = HUMDES-ACCEPTOR-7283: EI (0.0)
|   |   |   |   |   |   Instance_name = HUMDES-ACCEPTOR-7550: EI (0.0)
|   |   |   |   |   |   Instance_name = HUMEDHB17-ACCEPTOR-2031: EI (0.0)
|   |   |   |   |   |   Instance_name = HUMEDHB17-ACCEPTOR-2346: EI (0.0)
|   |   |   |   |   |   Instance_name = HUMEDHB17-ACCEPTOR-2701: EI (0.0)
|   |   |   |   |   |   Instance_name = HUMEDHB17-ACCEPTOR-3311: EI (0.0)
|   |   |   |   |   |   Instance_name = HUMEDHB17-ACCEPTOR-3575: EI (0.0)
|   |   |   |   |   |   Instance_name = HUMEF1A-ACCEPTOR-1522: EI (0.0)
|   |   |   |   |   |   Instance_name = HUMEF1A-ACCEPTOR-2062: EI (0.0)
|   |   |   |   |   |   Instance_name = HUMEF1A-ACCEPTOR-2347: EI (0.0)
|   |   |   |   |   |   Instance_name = HUMEF1A-ACCEPTOR-2727: EI (0.0)
|   |   |   |   |   |   Instance_name = HUMEF1A-ACCEPTOR-2965: EI (0.0)
|   |   |   |   |   |   Instance_name = HUMEF1A-ACCEPTOR-3311: EI (0.0)
|   |   |   |   |   |   Instance_name = HUMEF1A-ACCEPTOR-3641: EI (0.0)
|   |   |   |   |   |   Instance_name = HUMERP-ACCEPTOR-1164: EI (0.0)
|   |   |   |   |   |   Instance_name = HUMERP-ACCEPTOR-1566: EI (0.0)
|   |   |   |   |   |   Instance_name = HUMERP-ACCEPTOR-2264: EI (0.0)
|   |   |   |   |   |   Instance_name = HUMERP-ACCEPTOR-2578: EI (0.0)
|   |   |   |   |   |   Instance_name = HUMERPA-ACCEPTOR-1171: EI (0.0)
|   |   |   |   |   |   Instance_name = HUMERPA-ACCEPTOR-1575: EI (0.0)
|   |   |   |   |   |   Instance_name = HUMERPA-ACCEPTOR-2273: EI (0.0)
|   |   |   |   |   |   Instance_name = HUMERPA-ACCEPTOR-2587: EI (0.0)
|   |   |   |   |   |   Instance_name = HUMETN3-ACCEPTOR-391: EI (0.0)
|   |   |   |   |   |   Instance_name = HUMFABP-ACCEPTOR-2320: EI (0.0)
|   |   |   |   |   |   Instance_name = HUMFABP-ACCEPTOR-3516: EI (0.0)
|   |   |   |   |   |   Instance_name = HUMFABP-ACCEPTOR-4068: EI (0.0)
|   |   |   |   |   |   Instance_name = HUMFIXG-ACCEPTOR-9261: EI (0.0)
|   |   |   |   |   |   Instance_name = HUMFIXG-ACCEPTOR-9613: EI (0.0)
|   |   |   |   |   |   Instance_name = HUMFIXG-ACCEPTOR-13327: EI (0.0)
|   |   |   |   |   |   Instance_name = HUMFIXG-ACCEPTOR-20604: EI (0.0)
|   |   |   |   |   |   Instance_name = HUMFIXG-ACCEPTOR-23298: EI (0.0)
|   |   |   |   |   |   Instance_name = HUMFIXG-ACCEPTOR-32974: EI (0.0)
|   |   |   |   |   |   Instance_name = HUMFIXG-ACCEPTOR-33757: EI (0.0)
|   |   |   |   |   |   Instance_name = HUMFOS-ACCEPTOR-1753: EI (0.0)
|   |   |   |   |   |   Instance_name = HUMFOS-ACCEPTOR-2436: EI (0.0)
|   |   |   |   |   |   Instance_name = HUMFOS-ACCEPTOR-2658: EI (0.0)
|   |   |   |   |   |   Instance_name = HUMFVII-ACCEPTOR-136: EI (0.0)
|   |   |   |   |   |   Instance_name = HUMG0S19A-ACCEPTOR-2812: EI (0.0)
|   |   |   |   |   |   Instance_name = HUMG0S19A-ACCEPTOR-3347: EI (0.0)
|   |   |   |   |   |   Instance_name = HUMG0S19B-ACCEPTOR-2948: EI (0.0)
|   |   |   |   |   |   Instance_name = HUMG0S19B-ACCEPTOR-3484: EI (0.0)
|   |   |   |   |   |   Instance_name = HUMGAST2-ACCEPTOR-916: EI (0.0)
|   |   |   |   |   |   Instance_name = HUMGASTA-ACCEPTOR-6254: EI (0.0)
|   |   |   |   |   |   Instance_name = HUMGASTA-ACCEPTOR-6600: EI (0.0)
|   |   |   |   |   |   Instance_name = HUMGCB1-ACCEPTOR-949: EI (0.0)
|   |   |   |   |   |   Instance_name = HUMGCB1-ACCEPTOR-1590: EI (0.0)
|   |   |   |   |   |   Instance_name = HUMGCB1-ACCEPTOR-1905: EI (0.0)
|   |   |   |   |   |   Instance_name = HUMGCB1-ACCEPTOR-3009: EI (0.0)
|   |   |   |   |   |   Instance_name = HUMGCB1-ACCEPTOR-3353: EI (0.0)
|   |   |   |   |   |   Instance_name = HUMGCB1-ACCEPTOR-4081: EI (0.0)
|   |   |   |   |   |   Instance_name = HUMGCB1-ACCEPTOR-5186: EI (0.0)
|   |   |   |   |   |   Instance_name = HUMGCB1-ACCEPTOR-5810: EI (0.0)
|   |   |   |   |   |   Instance_name = HUMGCB1-ACCEPTOR-6344: EI (0.0)
|   |   |   |   |   |   Instance_name = HUMGCB1-ACCEPTOR-6555: EI (0.0)
|   |   |   |   |   |   Instance_name = HUMGFP40H-ACCEPTOR-992: EI (0.0)
|   |   |   |   |   |   Instance_name = HUMGFP40H-ACCEPTOR-1110: EI (0.0)
|   |   |   |   |   |   Instance_name = HUMGFP40H-ACCEPTOR-2431: EI (0.0)
|   |   |   |   |   |   Instance_name = HUMGFP40H-ACCEPTOR-4066: EI (0.0)
|   |   |   |   |   |   Instance_name = HUMGG-ACCEPTOR-1802: EI (0.0)
|   |   |   |   |   |   Instance_name = HUMGG-ACCEPTOR-3631: EI (0.0)
|   |   |   |   |   |   Instance_name = HUMGG-ACCEPTOR-5138: EI (0.0)
|   |   |   |   |   |   Instance_name = HUMGH-ACCEPTOR-571: EI (0.0)
|   |   |   |   |   |   Instance_name = HUMGH-ACCEPTOR-941: EI (0.0)
|   |   |   |   |   |   Instance_name = HUMGH-ACCEPTOR-986: EI (0.0)
|   |   |   |   |   |   Instance_name = HUMGH-ACCEPTOR-1154: EI (0.0)
|   |   |   |   |   |   Instance_name = HUMGH-ACCEPTOR-1572: EI (0.0)
|   |   |   |   |   |   Instance_name = HUMGHCSA-ACCEPTOR-5465: EI (0.0)
|   |   |   |   |   |   Instance_name = HUMGHCSA-ACCEPTOR-5835: EI (0.0)
|   |   |   |   |   |   Instance_name = HUMGHCSA-ACCEPTOR-6047: EI (0.0)
|   |   |   |   |   |   Instance_name = HUMGHCSA-ACCEPTOR-6465: EI (0.0)
|   |   |   |   |   |   Instance_name = HUMGHCSA-ACCEPTOR-13046: EI (0.0)
|   |   |   |   |   |   Instance_name = HUMGHCSA-ACCEPTOR-13504: EI (0.0)
|   |   |   |   |   |   Instance_name = HUMGHCSA-ACCEPTOR-13642: EI (0.0)
|   |   |   |   |   |   Instance_name = HUMGHCSA-ACCEPTOR-14059: EI (0.0)
|   |   |   |   |   |   Instance_name = HUMGHCSA-ACCEPTOR-27717: EI (0.0)
|   |   |   |   |   |   Instance_name = HUMGHCSA-ACCEPTOR-28101: EI (0.0)
|   |   |   |   |   |   Instance_name = HUMGHCSA-ACCEPTOR-28313: EI (0.0)
|   |   |   |   |   |   Instance_name = HUMGHCSA-ACCEPTOR-28732: EI (0.0)
|   |   |   |   |   |   Instance_name = HUMGHCSA-ACCEPTOR-42394: EI (0.0)
|   |   |   |   |   |   Instance_name = HUMGHCSA-ACCEPTOR-42765: EI (0.0)
|   |   |   |   |   |   Instance_name = HUMGHCSA-ACCEPTOR-42976: EI (0.0)
|   |   |   |   |   |   Instance_name = HUMGHCSA-ACCEPTOR-43393: EI (0.0)
|   |   |   |   |   |   Instance_name = HUMGHCSA-ACCEPTOR-50539: EI (0.0)
|   |   |   |   |   |   Instance_name = HUMGHCSA-ACCEPTOR-50922: EI (0.0)
|   |   |   |   |   |   Instance_name = HUMGHCSA-ACCEPTOR-51135: EI (0.0)
|   |   |   |   |   |   Instance_name = HUMGHCSA-ACCEPTOR-51551: EI (0.0)
|   |   |   |   |   |   Instance_name = HUMGHN-ACCEPTOR-798: EI (0.0)
|   |   |   |   |   |   Instance_name = HUMGHN-ACCEPTOR-1166: EI (0.0)
|   |   |   |   |   |   Instance_name = HUMGHN-ACCEPTOR-1379: EI (0.0)
|   |   |   |   |   |   Instance_name = HUMGHN-ACCEPTOR-1797: EI (0.0)
|   |   |   |   |   |   Instance_name = HUMGHVA-ACCEPTOR-741: EI (0.0)
|   |   |   |   |   |   Instance_name = HUMGPIBAA-ACCEPTOR-3033: EI (0.0)
|   |   |   |   |   |   Instance_name = HUMGRP78-ACCEPTOR-775: EI (0.0)
|   |   |   |   |   |   Instance_name = HUMGRP78-ACCEPTOR-1372: EI (0.0)
|   |   |   |   |   |   Instance_name = HUMGRP78-ACCEPTOR-2145: EI (0.0)
|   |   |   |   |   |   Instance_name = HUMGRP78-ACCEPTOR-2347: EI (0.0)
|   |   |   |   |   |   Instance_name = HUMGRP78-ACCEPTOR-2848: EI (0.0)
|   |   |   |   |   |   Instance_name = HUMGRP78-ACCEPTOR-3371: EI (0.0)
|   |   |   |   |   |   Instance_name = HUMGRP78-ACCEPTOR-4506: EI (0.0)
|   |   |   |   |   |   Instance_name = HUMGSHPXG-ACCEPTOR-968: EI (0.0)
|   |   |   |   |   |   Instance_name = HUMH19-ACCEPTOR-2224: EI (0.0)
|   |   |   |   |   |   Instance_name = HUMH19-ACCEPTOR-2449: EI (0.0)
|   |   |   |   |   |   Instance_name = HUMH19-ACCEPTOR-2643: EI (0.0)
|   |   |   |   |   |   Instance_name = HUMH19-ACCEPTOR-2846: EI (0.0)
|   |   |   |   |   |   Instance_name = HUMHBA4-ACCEPTOR-6885: EI (0.0)
|   |   |   |   |   |   Instance_name = HUMHBA4-ACCEPTOR-7232: EI (0.0)
|   |   |   |   |   |   Instance_name = HUMHBA4-ACCEPTOR-10696: EI (0.0)
|   |   |   |   |   |   Instance_name = HUMHBA4-ACCEPTOR-11050: EI (0.0)
|   |   |   |   |   |   Instance_name = HUMHBBAG-ACCEPTOR-1466: EI (0.0)
|   |   |   |   |   |   Instance_name = HUMHBBAG-ACCEPTOR-2565: EI (0.0)
|   |   |   |   |   |   Instance_name = HUMHBBGG-ACCEPTOR-2363: EI (0.0)
|   |   |   |   |   |   Instance_name = HUMHIAPPA-ACCEPTOR-959: EI (0.0)
|   |   |   |   |   |   Instance_name = HUMHIAPPA-ACCEPTOR-5862: EI (0.0)
|   |   |   |   |   |   Instance_name = HUMHMG14A-ACCEPTOR-1361: IE (1.0)
|   |   |   |   |   |   Instance_name = HUMHMG14A-ACCEPTOR-1487: EI (0.0)
|   |   |   |   |   |   Instance_name = HUMHMG14A-ACCEPTOR-1599: EI (0.0)
|   |   |   |   |   |   Instance_name = HUMHMG14A-ACCEPTOR-4663: EI (0.0)
|   |   |   |   |   |   Instance_name = HUMHMG14A-ACCEPTOR-6789: EI (0.0)
|   |   |   |   |   |   Instance_name = HUMHPARS1-ACCEPTOR-2519: EI (0.0)
|   |   |   |   |   |   Instance_name = HUMHPARS1-ACCEPTOR-2888: EI (0.0)
|   |   |   |   |   |   Instance_name = HUMHPARS1-ACCEPTOR-3750: EI (0.0)
|   |   |   |   |   |   Instance_name = HUMHPARS1-ACCEPTOR-4612: EI (0.0)
|   |   |   |   |   |   Instance_name = HUMHPARS1-ACCEPTOR-5472: EI (0.0)
|   |   |   |   |   |   Instance_name = HUMHPARS1-ACCEPTOR-6470: EI (0.0)
|   |   |   |   |   |   Instance_name = HUMHPRTB-ACCEPTOR-14750: EI (0.0)
|   |   |   |   |   |   Instance_name = HUMHPRTB-ACCEPTOR-16573: EI (0.0)
|   |   |   |   |   |   Instance_name = HUMHPRTB-ACCEPTOR-27861: EI (0.0)
|   |   |   |   |   |   Instance_name = HUMHPRTB-ACCEPTOR-31587: EI (0.0)
|   |   |   |   |   |   Instance_name = HUMHPRTB-ACCEPTOR-34907: EI (0.0)
|   |   |   |   |   |   Instance_name = HUMHPRTB-ACCEPTOR-39785: EI (0.0)
|   |   |   |   |   |   Instance_name = HUMHPRTB-ACCEPTOR-40003: EI (0.0)
|   |   |   |   |   |   Instance_name = HUMHPRTB-ACCEPTOR-41424: EI (0.0)
|   |   |   |   |   |   Instance_name = HUMHSP90B-ACCEPTOR-2605: EI (0.0)
|   |   |   |   |   |   Instance_name = HUMHSP90B-ACCEPTOR-3351: EI (0.0)
|   |   |   |   |   |   Instance_name = HUMHSP90B-ACCEPTOR-3649: EI (0.0)
|   |   |   |   |   |   Instance_name = HUMHSP90B-ACCEPTOR-3995: EI (0.0)
|   |   |   |   |   |   Instance_name = HUMHSP90B-ACCEPTOR-4265: EI (0.0)
|   |   |   |   |   |   Instance_name = HUMHSP90B-ACCEPTOR-5022: EI (0.0)
|   |   |   |   |   |   Instance_name = HUMHSP90B-ACCEPTOR-5391: EI (0.0)
|   |   |   |   |   |   Instance_name = HUMHSP90B-ACCEPTOR-5710: EI (0.0)
|   |   |   |   |   |   Instance_name = HUMHSP90B-ACCEPTOR-5972: IE (1.0)
|   |   |   |   |   |   Instance_name = HUMHSP90B-ACCEPTOR-7018: EI (0.0)
|   |   |   |   |   |   Instance_name = HUMHSP90B-ACCEPTOR-7462: EI (0.0)
|   |   |   |   |   |   Instance_name = HUMHST-ACCEPTOR-3478: EI (0.0)
|   |   |   |   |   |   Instance_name = HUMHST-ACCEPTOR-4120: EI (0.0)
|   |   |   |   |   |   Instance_name = HUMIFNINI-ACCEPTOR-2785: EI (0.0)
|   |   |   |   |   |   Instance_name = HUMIFNINI-ACCEPTOR-3147: EI (0.0)
|   |   |   |   |   |   Instance_name = HUMIFNINI-ACCEPTOR-3654: EI (0.0)
|   |   |   |   |   |   Instance_name = HUMIL1B-ACCEPTOR-879: EI (0.0)
|   |   |   |   |   |   Instance_name = HUMIL1B-ACCEPTOR-1506: EI (0.0)
|   |   |   |   |   |   Instance_name = HUMIL1B-ACCEPTOR-3546: EI (0.0)
|   |   |   |   |   |   Instance_name = HUMIL1B-ACCEPTOR-4293: EI (0.0)
|   |   |   |   |   |   Instance_name = HUMIL1B-ACCEPTOR-5693: EI (0.0)
|   |   |   |   |   |   Instance_name = HUMIL1B-ACCEPTOR-6540: EI (0.0)
|   |   |   |   |   |   Instance_name = HUMIL2-ACCEPTOR-685: EI (0.0)
|   |   |   |   |   |   Instance_name = HUMIL2-ACCEPTOR-3038: EI (0.0)
|   |   |   |   |   |   Instance_name = HUMIL2-ACCEPTOR-5027: EI (0.0)
|   |   |   |   |   |   Instance_name = HUMIL2A-ACCEPTOR-1623: EI (0.0)
|   |   |   |   |   |   Instance_name = HUMIL2A-ACCEPTOR-3975: EI (0.0)
|   |   |   |   |   |   Instance_name = HUMIL2A-ACCEPTOR-5980: EI (0.0)
|   |   |   |   |   |   Instance_name = HUMIL2B-ACCEPTOR-500: EI (0.0)
|   |   |   |   |   |   Instance_name = HUMIL2B-ACCEPTOR-2852: EI (0.0)
|   |   |   |   |   |   Instance_name = HUMIL2B-ACCEPTOR-4857: EI (0.0)
|   |   |   |   |   |   Instance_name = HUMIL5-ACCEPTOR-875: EI (0.0)
|   |   |   |   |   |   Instance_name = HUMIL5-ACCEPTOR-1853: EI (0.0)
|   |   |   |   |   |   Instance_name = HUMIL5-ACCEPTOR-2088: EI (0.0)
|   |   |   |   |   |   Instance_name = HUMIL5A-ACCEPTOR-874: EI (0.0)
|   |   |   |   |   |   Instance_name = HUMIL5A-ACCEPTOR-1857: EI (0.0)
|   |   |   |   |   |   Instance_name = HUMIL5A-ACCEPTOR-2091: EI (0.0)
|   |   |   |   |   |   Instance_name = HUMINCP-ACCEPTOR-2049: EI (0.0)
|   |   |   |   |   |   Instance_name = HUMINCP-ACCEPTOR-3281: EI (0.0)
|   |   |   |   |   |   Instance_name = HUMINCPPS-ACCEPTOR-2712: EI (0.0)
|   |   |   |   |   |   Instance_name = HUMINCPPS-ACCEPTOR-4028: EI (0.0)
|   |   |   |   |   |   Instance_name = HUMIRBPG-ACCEPTOR-4936: EI (0.0)
|   |   |   |   |   |   Instance_name = HUMIRBPG-ACCEPTOR-6987: EI (0.0)
|   |   |   |   |   |   Instance_name = HUMIRBPG-ACCEPTOR-8736: EI (0.0)
|   |   |   |   |   |   Instance_name = HUMKAL2-ACCEPTOR-1745: EI (0.0)
|   |   |   |   |   |   Instance_name = HUMKAL2-ACCEPTOR-3494: EI (0.0)
|   |   |   |   |   |   Instance_name = HUMKAL2-ACCEPTOR-3894: EI (0.0)
|   |   |   |   |   |   Instance_name = HUMKAL2-ACCEPTOR-5424: EI (0.0)
|   |   |   |   |   |   Instance_name = HUMKER18-ACCEPTOR-3708: EI (0.0)
|   |   |   |   |   |   Instance_name = HUMKER18-ACCEPTOR-4128: EI (0.0)
|   |   |   |   |   |   Instance_name = HUMKER18-ACCEPTOR-4857: EI (0.0)
|   |   |   |   |   |   Instance_name = HUMKER18-ACCEPTOR-5107: EI (0.0)
|   |   |   |   |   |   Instance_name = HUMKER18-ACCEPTOR-5495: EI (0.0)
|   |   |   |   |   |   Instance_name = HUMKER18-ACCEPTOR-6098: EI (0.0)
|   |   |   |   |   |   Instance_name = HUMKEREP-ACCEPTOR-2070: EI (0.0)
|   |   |   |   |   |   Instance_name = HUMKEREP-ACCEPTOR-2715: IE (1.0)
|   |   |   |   |   |   Instance_name = HUMKEREP-ACCEPTOR-3206: EI (0.0)
|   |   |   |   |   |   Instance_name = HUMKEREP-ACCEPTOR-3451: EI (0.0)
|   |   |   |   |   |   Instance_name = HUMKEREP-ACCEPTOR-3671: EI (0.0)
|   |   |   |   |   |   Instance_name = HUMKEREP-ACCEPTOR-3986: EI (0.0)
|   |   |   |   |   |   Instance_name = HUMKEREP-ACCEPTOR-4597: EI (0.0)
|   |   |   |   |   |   Instance_name = HUMLACTA-ACCEPTOR-1512: EI (0.0)
|   |   |   |   |   |   Instance_name = HUMLACTA-ACCEPTOR-2160: EI (0.0)
|   |   |   |   |   |   Instance_name = HUMLACTA-ACCEPTOR-2735: IE (1.0)
|   |   |   |   |   |   Instance_name = HUMLYL1B-ACCEPTOR-2189: EI (0.0)
|   |   |   |   |   |   Instance_name = HUMLYL1B-ACCEPTOR-2630: EI (0.0)
|   |   |   |   |   |   Instance_name = HUMLYL1B-ACCEPTOR-3525: EI (0.0)
|   |   |   |   |   |   Instance_name = HUMMETIF1-ACCEPTOR-1065: EI (0.0)
|   |   |   |   |   |   Instance_name = HUMMETIF1-ACCEPTOR-1463: EI (0.0)
|   |   |   |   |   |   Instance_name = HUMMH6-ACCEPTOR-955: EI (0.0)
|   |   |   |   |   |   Instance_name = HUMMH6-ACCEPTOR-1451: EI (0.0)
|   |   |   |   |   |   Instance_name = HUMMH6-ACCEPTOR-2326: EI (0.0)
|   |   |   |   |   |   Instance_name = HUMMH6-ACCEPTOR-2724: EI (0.0)
|   |   |   |   |   |   Instance_name = HUMMH6-ACCEPTOR-3284: EI (0.0)
|   |   |   |   |   |   Instance_name = HUMMH6-ACCEPTOR-3562: EI (0.0)
|   |   |   |   |   |   Instance_name = HUMMH6-ACCEPTOR-3673: EI (0.0)
|   |   |   |   |   |   Instance_name = HUMMHANTLE-ACCEPTOR-1363: EI (0.0)
|   |   |   |   |   |   Instance_name = HUMMHANTLE-ACCEPTOR-1874: EI (0.0)
|   |   |   |   |   |   Instance_name = HUMMHANTLE-ACCEPTOR-2733: EI (0.0)
|   |   |   |   |   |   Instance_name = HUMMHANTLE-ACCEPTOR-3110: EI (0.0)
|   |   |   |   |   |   Instance_name = HUMMHANTLE-ACCEPTOR-3667: EI (0.0)
|   |   |   |   |   |   Instance_name = HUMMHANTLE-ACCEPTOR-3842: EI (0.0)
|   |   |   |   |   |   Instance_name = HUMMHANTLE-ACCEPTOR-4055: EI (0.0)
|   |   |   |   |   |   Instance_name = HUMMHB27B-ACCEPTOR-690: EI (0.0)
|   |   |   |   |   |   Instance_name = HUMMHB27B-ACCEPTOR-1202: EI (0.0)
|   |   |   |   |   |   Instance_name = HUMMHB27B-ACCEPTOR-2053: EI (0.0)
|   |   |   |   |   |   Instance_name = HUMMHB27B-ACCEPTOR-2421: EI (0.0)
|   |   |   |   |   |   Instance_name = HUMMHB27B-ACCEPTOR-2980: EI (0.0)
|   |   |   |   |   |   Instance_name = HUMMHB27B-ACCEPTOR-3119: EI (0.0)
|   |   |   |   |   |   Instance_name = HUMMHCD8A-ACCEPTOR-733: EI (0.0)
|   |   |   |   |   |   Instance_name = HUMMHCD8A-ACCEPTOR-1670: EI (0.0)
|   |   |   |   |   |   Instance_name = HUMMHCD8A-ACCEPTOR-1987: EI (0.0)
|   |   |   |   |   |   Instance_name = HUMMHCD8A-ACCEPTOR-2860: EI (0.0)
|   |   |   |   |   |   Instance_name = HUMMHCD8A-ACCEPTOR-5474: EI (0.0)
|   |   |   |   |   |   Instance_name = HUMMHCP42-ACCEPTOR-1945: EI (0.0)
|   |   |   |   |   |   Instance_name = HUMMHCP42-ACCEPTOR-2316: EI (0.0)
|   |   |   |   |   |   Instance_name = HUMMHCP42-ACCEPTOR-2577: EI (0.0)
|   |   |   |   |   |   Instance_name = HUMMHCP42-ACCEPTOR-2767: EI (0.0)
|   |   |   |   |   |   Instance_name = HUMMHCP42-ACCEPTOR-2970: EI (0.0)
|   |   |   |   |   |   Instance_name = HUMMHCP42-ACCEPTOR-3226: EI (0.0)
|   |   |   |   |   |   Instance_name = HUMMHCP42-ACCEPTOR-3627: EI (0.0)
|   |   |   |   |   |   Instance_name = HUMMHCP42-ACCEPTOR-3889: EI (0.0)
|   |   |   |   |   |   Instance_name = HUMMHCP42-ACCEPTOR-4089: EI (0.0)
|   |   |   |   |   |   Instance_name = HUMMHCP52-ACCEPTOR-479: EI (0.0)
|   |   |   |   |   |   Instance_name = HUMMHCP52-ACCEPTOR-851: EI (0.0)
|   |   |   |   |   |   Instance_name = HUMMHCP52-ACCEPTOR-1114: EI (0.0)
|   |   |   |   |   |   Instance_name = HUMMHCP52-ACCEPTOR-1304: EI (0.0)
|   |   |   |   |   |   Instance_name = HUMMHCP52-ACCEPTOR-1507: EI (0.0)
|   |   |   |   |   |   Instance_name = HUMMHCP52-ACCEPTOR-1763: EI (0.0)
|   |   |   |   |   |   Instance_name = HUMMHCP52-ACCEPTOR-2165: EI (0.0)
|   |   |   |   |   |   Instance_name = HUMMHCP52-ACCEPTOR-2427: EI (0.0)
|   |   |   |   |   |   Instance_name = HUMMHCP52-ACCEPTOR-2628: EI (0.0)
|   |   |   |   |   |   Instance_name = HUMMHCW1B-ACCEPTOR-882: EI (0.0)
|   |   |   |   |   |   Instance_name = HUMMHCW1B-ACCEPTOR-1398: EI (0.0)
|   |   |   |   |   |   Instance_name = HUMMHCW1B-ACCEPTOR-2261: EI (0.0)
|   |   |   |   |   |   Instance_name = HUMMHCW1B-ACCEPTOR-2658: EI (0.0)
|   |   |   |   |   |   Instance_name = HUMMHCW1B-ACCEPTOR-3217: EI (0.0)
|   |   |   |   |   |   Instance_name = HUMMHCW1B-ACCEPTOR-3357: EI (0.0)
|   |   |   |   |   |   Instance_name = HUMMHCW1B-ACCEPTOR-3569: EI (0.0)
|   |   |   |   |   |   Instance_name = HUMMHCW2B-ACCEPTOR-885: EI (0.0)
|   |   |   |   |   |   Instance_name = HUMMHCW2B-ACCEPTOR-1399: EI (0.0)
|   |   |   |   |   |   Instance_name = HUMMHCW2B-ACCEPTOR-2263: EI (0.0)
|   |   |   |   |   |   Instance_name = HUMMHCW2B-ACCEPTOR-2660: EI (0.0)
|   |   |   |   |   |   Instance_name = HUMMHCW2B-ACCEPTOR-3219: EI (0.0)
|   |   |   |   |   |   Instance_name = HUMMHCW2B-ACCEPTOR-3359: EI (0.0)
|   |   |   |   |   |   Instance_name = HUMMHCW2B-ACCEPTOR-3570: EI (0.0)
|   |   |   |   |   |   Instance_name = HUMMHDOB-ACCEPTOR-2649: EI (0.0)
|   |   |   |   |   |   Instance_name = HUMMHDOB-ACCEPTOR-3357: EI (0.0)
|   |   |   |   |   |   Instance_name = HUMMHDOB-ACCEPTOR-4124: EI (0.0)
|   |   |   |   |   |   Instance_name = HUMMHDOB-ACCEPTOR-4486: EI (0.0)
|   |   |   |   |   |   Instance_name = HUMMHDOB-ACCEPTOR-4706: EI (0.0)
|   |   |   |   |   |   Instance_name = HUMMHDRHA-ACCEPTOR-2969: EI (0.0)
|   |   |   |   |   |   Instance_name = HUMMHDRHA-ACCEPTOR-3705: EI (0.0)
|   |   |   |   |   |   Instance_name = HUMMHDRHA-ACCEPTOR-4276: EI (0.0)
|   |   |   |   |   |   Instance_name = HUMMHDRHA-ACCEPTOR-5181: EI (0.0)
|   |   |   |   |   |   Instance_name = HUMMHEA-ACCEPTOR-869: EI (0.0)
|   |   |   |   |   |   Instance_name = HUMMHEA-ACCEPTOR-1381: EI (0.0)
|   |   |   |   |   |   Instance_name = HUMMHEA-ACCEPTOR-2278: EI (0.0)
|   |   |   |   |   |   Instance_name = HUMMHEA-ACCEPTOR-2678: EI (0.0)
|   |   |   |   |   |   Instance_name = HUMMHEA-ACCEPTOR-3545: EI (0.0)
|   |   |   |   |   |   Instance_name = HUMMHEA-ACCEPTOR-3682: EI (0.0)
|   |   |   |   |   |   Instance_name = HUMMHEA-ACCEPTOR-3890: EI (0.0)
|   |   |   |   |   |   Instance_name = HUMMIS-ACCEPTOR-1185: EI (0.0)
|   |   |   |   |   |   Instance_name = HUMMIS-ACCEPTOR-1500: EI (0.0)
|   |   |   |   |   |   Instance_name = HUMMIS-ACCEPTOR-1697: EI (0.0)
|   |   |   |   |   |   Instance_name = HUMMIS-ACCEPTOR-1947: EI (0.0)
|   |   |   |   |   |   Instance_name = HUMMRP14A-ACCEPTOR-1386: EI (0.0)
|   |   |   |   |   |   Instance_name = HUMMRP14A-ACCEPTOR-3418: EI (0.0)
|   |   |   |   |   |   Instance_name = HUMMRP8A-ACCEPTOR-1988: IE (1.0)
|   |   |   |   |   |   Instance_name = HUMMRP8A-ACCEPTOR-2302: EI (0.0)
|   |   |   |   |   |   Instance_name = HUMMT2A-ACCEPTOR-1047: EI (0.0)
|   |   |   |   |   |   Instance_name = HUMMT2A-ACCEPTOR-1454: EI (0.0)
|   |   |   |   |   |   Instance_name = HUMMYC3L-ACCEPTOR-766: EI (0.0)
|   |   |   |   |   |   Instance_name = HUMMYC3L-ACCEPTOR-4242: EI (0.0)
|   |   |   |   |   |   Instance_name = HUMMYCC-ACCEPTOR-4476: EI (0.0)
|   |   |   |   |   |   Instance_name = HUMMYCC-ACCEPTOR-6624: EI (0.0)
|   |   |   |   |   |   Instance_name = HUMMYCRT-ACCEPTOR-1111: EI (0.0)
|   |   |   |   |   |   Instance_name = HUMMYCRT-ACCEPTOR-3258: EI (0.0)
|   |   |   |   |   |   Instance_name = HUMMYLCA-ACCEPTOR-924: EI (0.0)
|   |   |   |   |   |   Instance_name = HUMMYLCA-ACCEPTOR-1831: EI (0.0)
|   |   |   |   |   |   Instance_name = HUMMYLCA-ACCEPTOR-2214: EI (0.0)
|   |   |   |   |   |   Instance_name = HUMMYLCA-ACCEPTOR-2481: IE (2.0)
|   |   |   |   |   |   Instance_name = HUMMYLCA-ACCEPTOR-2864: EI (0.0)
|   |   |   |   |   |   Instance_name = HUMMYLCA-ACCEPTOR-3623: EI (0.0)
|   |   |   |   |   |   Instance_name = HUMOPS-ACCEPTOR-2409: EI (0.0)
|   |   |   |   |   |   Instance_name = HUMOPS-ACCEPTOR-3783: EI (0.0)
|   |   |   |   |   |   Instance_name = HUMOPS-ACCEPTOR-4065: EI (0.0)
|   |   |   |   |   |   Instance_name = HUMOPS-ACCEPTOR-5138: EI (0.0)
|   |   |   |   |   |   Instance_name = HUMOTNPI-ACCEPTOR-808: EI (0.0)
|   |   |   |   |   |   Instance_name = HUMOTNPI-ACCEPTOR-1091: EI (0.0)
|   |   |   |   |   |   Instance_name = HUMP3A-ACCEPTOR-2544: EI (0.0)
|   |   |   |   |   |   Instance_name = HUMP45C17-ACCEPTOR-3774: EI (0.0)
|   |   |   |   |   |   Instance_name = HUMP45C17-ACCEPTOR-4146: EI (0.0)
|   |   |   |   |   |   Instance_name = HUMP45C17-ACCEPTOR-5038: EI (0.0)
|   |   |   |   |   |   Instance_name = HUMP45C17-ACCEPTOR-5819: EI (0.0)
|   |   |   |   |   |   Instance_name = HUMP45C17-ACCEPTOR-6267: EI (0.0)
|   |   |   |   |   |   Instance_name = HUMP45C17-ACCEPTOR-7334: EI (0.0)
|   |   |   |   |   |   Instance_name = HUMP45C17-ACCEPTOR-7956: EI (0.0)
|   |   |   |   |   |   Instance_name = HUMPCNA-ACCEPTOR-2326: EI (0.0)
|   |   |   |   |   |   Instance_name = HUMPCNA-ACCEPTOR-2520: EI (0.0)
|   |   |   |   |   |   Instance_name = HUMPCNA-ACCEPTOR-3526: EI (0.0)
|   |   |   |   |   |   Instance_name = HUMPCNA-ACCEPTOR-5606: EI (0.0)
|   |   |   |   |   |   Instance_name = HUMPCNA-ACCEPTOR-5816: EI (0.0)
|   |   |   |   |   |   Instance_name = HUMPGAMMG-ACCEPTOR-1450: EI (0.0)
|   |   |   |   |   |   Instance_name = HUMPGAMMG-ACCEPTOR-3519: EI (0.0)
|   |   |   |   |   |   Instance_name = HUMPIM1A-ACCEPTOR-1335: EI (0.0)
|   |   |   |   |   |   Instance_name = HUMPIM1A-ACCEPTOR-1543: EI (0.0)
|   |   |   |   |   |   Instance_name = HUMPIM1A-ACCEPTOR-1687: EI (0.0)
|   |   |   |   |   |   Instance_name = HUMPIM1A-ACCEPTOR-3558: EI (0.0)
|   |   |   |   |   |   Instance_name = HUMPIM1A-ACCEPTOR-4496: EI (0.0)
|   |   |   |   |   |   Instance_name = HUMPLAPL-ACCEPTOR-452: EI (0.0)
|   |   |   |   |   |   Instance_name = HUMPLAPL-ACCEPTOR-681: EI (0.0)
|   |   |   |   |   |   Instance_name = HUMPLAPL-ACCEPTOR-987: EI (0.0)
|   |   |   |   |   |   Instance_name = HUMPLPSPC-ACCEPTOR-1326: EI (0.0)
|   |   |   |   |   |   Instance_name = HUMPLPSPC-ACCEPTOR-1830: EI (0.0)
|   |   |   |   |   |   Instance_name = HUMPLPSPC-ACCEPTOR-2176: EI (0.0)
|   |   |   |   |   |   Instance_name = HUMPLPSPC-ACCEPTOR-2621: EI (0.0)
|   |   |   |   |   |   Instance_name = HUMPNMTA-ACCEPTOR-3129: EI (0.0)
|   |   |   |   |   |   Instance_name = HUMPNMTA-ACCEPTOR-3450: EI (0.0)
|   |   |   |   |   |   Instance_name = HUMPOMC-ACCEPTOR-4445: EI (0.0)
|   |   |   |   |   |   Instance_name = HUMPOMC-ACCEPTOR-7483: EI (0.0)
|   |   |   |   |   |   Instance_name = HUMPPPA-ACCEPTOR-1721: EI (0.0)
|   |   |   |   |   |   Instance_name = HUMPPPA-ACCEPTOR-2162: IE (1.0)
|   |   |   |   |   |   Instance_name = HUMPPPA-ACCEPTOR-2425: EI (0.0)
|   |   |   |   |   |   Instance_name = HUMPRCA-ACCEPTOR-3434: EI (0.0)
|   |   |   |   |   |   Instance_name = HUMPRCA-ACCEPTOR-5063: EI (0.0)
|   |   |   |   |   |   Instance_name = HUMPRCA-ACCEPTOR-5180: EI (0.0)
|   |   |   |   |   |   Instance_name = HUMPRCA-ACCEPTOR-5420: EI (0.0)
|   |   |   |   |   |   Instance_name = HUMPRCA-ACCEPTOR-8223: EI (0.0)
|   |   |   |   |   |   Instance_name = HUMPRCA-ACCEPTOR-9239: EI (0.0)
|   |   |   |   |   |   Instance_name = HUMPRCA-ACCEPTOR-10486: EI (0.0)
|   |   |   |   |   |   Instance_name = HUMPRF1A-ACCEPTOR-3240: EI (0.0)
|   |   |   |   |   |   Instance_name = HUMPRF1A-ACCEPTOR-4965: EI (0.0)
|   |   |   |   |   |   Instance_name = HUMPRPH1-ACCEPTOR-2738: EI (0.0)
|   |   |   |   |   |   Instance_name = HUMPRPH1-ACCEPTOR-3136: EI (0.0)
|   |   |   |   |   |   Instance_name = HUMPRPH1-ACCEPTOR-4714: EI (0.0)
|   |   |   |   |   |   Instance_name = HUMPRPH2-ACCEPTOR-1848: EI (0.0)
|   |   |   |   |   |   Instance_name = HUMPRPH2-ACCEPTOR-2241: EI (0.0)
|   |   |   |   |   |   Instance_name = HUMPRPH2-ACCEPTOR-3802: EI (0.0)
|   |   |   |   |   |   Instance_name = HUMPRT1A-ACCEPTOR-209: EI (0.0)
|   |   |   |   |   |   Instance_name = HUMPSAA-ACCEPTOR-1929: EI (0.0)
|   |   |   |   |   |   Instance_name = HUMPSAA-ACCEPTOR-3726: EI (0.0)
|   |   |   |   |   |   Instance_name = HUMPSAA-ACCEPTOR-4156: EI (0.0)
|   |   |   |   |   |   Instance_name = HUMPSAA-ACCEPTOR-5669: EI (0.0)
|   |   |   |   |   |   Instance_name = HUMPSAP-ACCEPTOR-993: EI (0.0)
|   |   |   |   |   |   Instance_name = HUMPSAP-ACCEPTOR-1501: EI (0.0)
|   |   |   |   |   |   Instance_name = HUMPSAP-ACCEPTOR-2374: EI (0.0)
|   |   |   |   |   |   Instance_name = HUMPSAP-ACCEPTOR-2927: EI (0.0)
|   |   |   |   |   |   Instance_name = HUMRASH-ACCEPTOR-2012: EI (0.0)
|   |   |   |   |   |   Instance_name = HUMRASH-ACCEPTOR-2344: EI (0.0)
|   |   |   |   |   |   Instance_name = HUMRASH-ACCEPTOR-3201: EI (0.0)
|   |   |   |   |   |   Instance_name = HUMRPS14-ACCEPTOR-2108: EI (0.0)
|   |   |   |   |   |   Instance_name = HUMRPS14-ACCEPTOR-2872: EI (0.0)
|   |   |   |   |   |   Instance_name = HUMRPS14-ACCEPTOR-4137: EI (0.0)
|   |   |   |   |   |   Instance_name = HUMRPS14-ACCEPTOR-5473: EI (0.0)
|   |   |   |   |   |   Instance_name = HUMRPS17A-ACCEPTOR-463: EI (0.0)
|   |   |   |   |   |   Instance_name = HUMRPS17A-ACCEPTOR-1611: EI (0.0)
|   |   |   |   |   |   Instance_name = HUMRPS17A-ACCEPTOR-2225: EI (0.0)
|   |   |   |   |   |   Instance_name = HUMRPS17A-ACCEPTOR-3688: EI (0.0)
|   |   |   |   |   |   Instance_name = HUMSAA-ACCEPTOR-606: EI (0.0)
|   |   |   |   |   |   Instance_name = HUMSAA-ACCEPTOR-2567: EI (0.0)
|   |   |   |   |   |   Instance_name = HUMSAA-ACCEPTOR-3086: EI (0.0)
|   |   |   |   |   |   Instance_name = HUMSAA1A-ACCEPTOR-3145: EI (0.0)
|   |   |   |   |   |   Instance_name = HUMSAA1A-ACCEPTOR-5878: EI (0.0)
|   |   |   |   |   |   Instance_name = HUMSAA1A-ACCEPTOR-6290: EI (0.0)
|   |   |   |   |   |   Instance_name = HUMSAACT-ACCEPTOR-1638: EI (0.0)
|   |   |   |   |   |   Instance_name = HUMSAACT-ACCEPTOR-1885: EI (0.0)
